63 300
justo 0.0053761 -0.077535 -0.10986 0.11083 -0.090389 0.047243 0.054037 -0.080351 0.083874 -0.031987 -0.020364 -0.11683 -0.066476 0.035057 -0.067601 -0.056001 0.23176 -0.13851 0.057875 0.09088 0.011587 0.020711 0.091488 -0.046173 -0.017033 -0.063071 -0.11702 0.15984 -0.16931 0.22668 -0.069984 -0.032703 -0.040939 0.12945 -0.016631 0.047673 0.019636 0.062436 0.038296 -0.001777 0.0012362 -0.13858 -0.034093 -0.0015367 -0.0057509 0.12223 0.017352 -0.08418 -0.085654 0.020653 -0.039106 -0.0052936 -0.10836 0.036315 -0.0053826 -0.031447 -0.045185 0.083114 0.050078 -0.12196 0.14394 -0.046694 0.1449 0.0057946 -0.079588 0.18186 -0.13326 0.087534 0.059199 -0.00066913 0.084131 -0.0090976 -0.066629 -0.096007 0.023624 -0.011807 0.030772 0.084458 -0.071383 0.027374 -0.10929 -0.15088 0.019011 -0.014958 0.015344 -0.018798 -0.044315 0.053956 0.10471 0.032773 0.10983 -0.028007 -0.027986 -0.097904 0.065851 -0.012756 0.012577 0.084354 -0.16237 0.083092 -0.012181 -0.036858 -0.018641 0.056857 0.011877 0.15787 -0.023333 -0.19178 0.1047 -0.042176 0.16402 -0.082691 -0.06969 -0.017603 0.043788 -0.10619 0.051439 0.022754 -0.10373 0.057084 -0.0048545 0.0022082 -0.0094359 -0.05052 -0.045651 0.028671 -0.019273 -0.038774 0.11928 0.033014 0.14669 0.016977 -0.10348 -0.080941 0.026559 0.17193 -0.14533 -0.045345 -0.041023 0.018421 -0.13933 -0.053382 -0.06672 -0.012215 -0.044566 0.059997 -0.11708 -0.10393 0.098479 0.12899 -0.032075 0.0045013 0.011047 -0.14236 0.013483 0.011949 0.020191 -0.099567 -0.18417 -0.010068 -0.038341 -0.11861 0.014782 -0.026075 -0.057853 -0.027686 0.02503 0.023821 0.11578 -0.071126 -0.10356 0.13799 0.039208 0.072175 0.099942 -0.29722 -0.098747 0.050554 0.066281 -0.085384 -0.085745 0.07442 -0.048943 -0.1067 0.060943 -0.013678 0.040779 0.10927 -0.053334 -0.051003 0.13503 -0.053266 -0.04386 -0.051015 -0.045787 -0.024291 -0.0054574 -0.051064 0.040403 0.01395 -0.057328 -0.053739 -0.064997 0.035957 0.045041 -0.0226 -0.0072392 -0.0825 -0.032788 -0.10802 -0.12213 -0.0085669 -0.055786 0.12244 0.018108 0.058956 -0.0011463 0.15148 -0.015815 0.0017485 0.09184 0.11059 0.025692 -0.036998 -0.14838 0.022646 -0.16724 0.034149 0.015073 0.013125 -0.071403 0.065075 0.032908 -0.04203 -0.092338 0.10117 0.14927 -0.037894 -0.016875 -0.011075 -0.057648 -0.11606 0.21635 0.026866 0.25247 -0.068443 -0.14136 0.16654 -0.017684 0.010559 -0.17833 0.098925 -0.15182 0.022799 -0.12407 0.019735 0.12523 0.022439 0.086802 0.076745 0.083478 0.035705 -0.079825 -0.048404 -0.067472 -0.10135 0.012914 -0.072451 0.085013 0.0064904 0.083991 -0.034802 -0.03132 -0.018655 -0.016417 0.14718 -0.1086 -0.012032 0.014753 0.02489 -0.025433 0.0010348 -0.01023 0.060339 -0.025631 0.00038327 -0.060529 -0.086251 0.036845 -0.020248 0.11881 0.057838 -0.07299 0.18577 0.0036154 -0.0058115 -0.18604 0.088153 0.0074965 -0.020522
dolor 0.11622 -0.15144 -0.099701 0.097121 0.041769 -0.067073 -0.0912 0.029539 0.16218 -0.01662 -0.094732 -0.095035 0.085083 0.026187 -0.040246 -0.035604 -0.09054 -0.016945 -0.027346 0.020898 0.018858 0.037232 0.063082 -0.051791 -0.031204 -0.030765 -0.099221 0.13576 -0.16261 0.239 -0.0077672 0.09376 -0.084214 0.050669 0.13987 -0.03961 0.017887 0.053789 0.027117 0.030906 0.030698 -0.087767 0.029403 0.12074 -0.031584 0.028344 0.0072386 -0.054889 0.039517 -0.056581 0.14003 0.03036 0.1129 -0.12657 -0.026012 0.021318 0.030472 0.13358 0.031083 -0.13991 0.14631 0.048583 0.21333 0.026808 -0.1158 0.24217 0.050323 0.14911 0.0031888 -0.072253 0.25412 -0.041204 -0.099579 -0.10789 -0.027662 -0.1348 0.006173 0.018568 -0.027797 0.0034871 -0.10202 0.026455 0.18041 -0.13653 -0.046804 -0.032671 0.064113 -0.0095294 0.008451 -0.041169 -0.018794 -0.043519 -0.073222 -0.005086 0.017464 -0.17193 0.035428 0.10738 -0.00095199 -0.045184 0.012384 -0.12358 0.065894 -0.044595 0.051589 0.071359 -0.0075817 -0.056912 0.0096798 0.10972 0.013802 -0.134 -0.052884 0.060407 0.063938 -0.059218 0.035878 0.09798 -0.10777 -0.081756 -0.046879 0.094004 0.039947 -0.1073 -0.04995 -0.05298 -0.016266 -0.053855 -0.0069891 -0.020374 0.063629 0.054767 -0.023219 -0.040482 0.10024 0.050816 -0.011902 0.035411 -0.055968 0.1305 -0.072529 -0.12433 -0.0082182 0.043085 -0.12256 0.049774 -0.23028 -0.24842 0.072423 0.029651 -0.042239 -0.12737 0.024933 -0.077431 -0.17576 -0.078538 0.031164 -0.13596 0.23668 0.046897 0.0061297 -0.025533 0.043377 -0.031756 -0.10284 -0.12724 -0.00020466 -0.04736 0.073381 -0.023852 0.086964 0.028025 -0.15709 -0.02851 -0.034391 -0.10277 0.064805 0.26465 -0.10376 -0.26878 -0.046915 -0.0056241 -0.077896 -0.10919 0.060602 -0.0089573 0.13008 -0.00036793 -0.028759 -0.11837 0.097791 -0.0040604 -0.0037863 0.043315 -0.022058 -0.084415 -0.053778 0.038881 -0.045733 0.08741 -0.073436 -0.027361 -0.02917 -0.033341 -0.12331 0.1237 -0.080318 -0.11217 0.087553 -0.058253 -0.14161 -0.075875 -0.013171 0.050865 0.080517 -0.026269 0.025146 0.071537 0.086263 0.008118 -0.016566 0.055136 0.074008 0.072578 -0.11391 0.19315 0.14621 0.029636 0.084665 0.056151 0.045696 -0.048521 0.0089017 0.11648 0.014154 -0.0024861 0.11816 -0.013264 -0.184 -0.074108 -0.052236 -0.02388 0.21771 -0.0076658 0.2379 -0.0031663 -0.15945 0.11712 0.11855 0.095083 -0.15643 0.062657 -0.029694 0.011359 -0.089867 0.042829 0.033941 0.038986 -0.073255 0.07798 0.025231 -0.079883 -0.045417 -0.11519 0.012498 -0.15098 0.066346 -0.13003 0.051246 0.052072 0.024904 -0.076927 0.04399 0.0087194 0.042591 0.14077 -0.084971 0.10049 -0.0035225 0.11864 0.1132 0.23542 -0.045344 0.14186 -0.066526 0.10468 -0.046182 0.098949 0.028749 -0.10037 -0.014926 0.073742 -0.013803 -0.022174 0.02401 -0.010956 -0.18406 0.028967 -0.043015 0.04057
aenean -0.053337 0.0022326 -0.032371 0.12814 0.0817 -0.06174 0.06186 0.047836 -0.018035 -0.047089 4.8328e-05 -0.029478 -0.015038 -0.00071075 0.0053941 -0.096483 -0.011776 0.0081784 -0.028667 0.036267 0.021464 0.010067 0.11934 -0.004158 0.038053 0.0072719 -0.091871 0.081186 -0.068607 0.30657 -0.015661 0.022108 -0.0017092 0.070001 0.079911 -0.10348 0.029385 0.018012 -0.0093322 -0.029552 0.060529 -0.060835 0.046446 0.024258 0.062317 -0.050975 -0.00029554 -0.027911 0.001007 0.056961 0.029552 -0.11049 0.018619 -0.055278 0.024109 0.026888 0.055886 -0.030829 -0.045637 -0.053107 0.10179 -0.0014263 0.1659 -0.029994 -0.081505 0.16785 0.074321 0.010086 -0.14313 -0.00077816 0.079783 -0.0053759 0.04589 -0.042668 0.041127 0.04376 0.07346 -0.010313 0.015655 0.057706 -0.099622 0.061671 0.016392 -0.063935 -0.0090574 -0.047702 -0.014998 0.066511 -0.0058807 -0.031975 0.066589 -0.03376 -0.080369 -0.082358 0.021314 -0.04968 -0.021648 -0.013391 0.017215 -0.045723 0.0071589 -0.035478 -0.055093 -0.03024 0.079544 0.10711 0.0048504 0.0018854 0.077112 0.015525 -0.012021 -0.058188 -0.10989 0.002435 0.065749 -0.039788 0.073673 0.032848 -0.090868 -0.01433 -0.040577 0.10803 0.059312 -0.057244 0.020959 -0.040171 -1.5581e-05 -0.009848 -0.01626 0.00078083 0.083908 -0.05999 -0.016616 -0.070157 0.016841 0.001798 0.036235 -0.0049172 -0.037464 0.019113 0.038187 0.07169 -0.028433 0.073876 -0.090356 -0.018926 -0.14062 -0.062561 0.018847 -0.055607 -0.0052 -0.0024516 -0.010367 -0.016993 0.0028624 -0.037485 -0.06583 -0.018614 0.042375 -0.11804 0.029759 -0.017348 0.01827 -0.0043013 -0.013634 -0.045677 0.097763 -0.021601 -0.070242 -0.030765 -0.073685 0.041462 -0.097471 -0.036436 0.077278 -0.021197 -0.020238 0.022129 -0.054503 -0.0029919 0.10381 0.039157 0.022701 -0.10947 0.010529 0.015107 0.099649 0.10503 -0.043367 -0.026335 0.042203 -0.078558 -0.0099011 0.0078915 -0.045162 0.011532 -0.071826 0.075846 0.091702 0.0064058 0.031445 0.021692 -0.099249 -0.0036492 -0.064277 -0.06253 0.01834 0.036847 0.05464 -0.005616 -0.074574 -0.043963 0.024373 0.051985 -0.031653 -0.02415 0.031906 0.054141 0.10374 0.0061014 0.010374 0.021905 0.025985 0.001353 -0.13197 0.060044 -0.0195 0.11836 -0.036574 0.042451 0.03963 0.016287 0.012361 0.039286 -0.014537 0.010143 0.025911 0.011822 -0.10902 0.023322 -0.023152 0.019237 0.055425 -0.028231 0.19722 0.048884 -0.053385 -0.01392 0.0017676 0.041349 -0.11785 0.031161 0.017965 -0.025316 -0.097408 -0.01307 0.025349 0.11554 0.028194 0.014932 0.024119 0.0039684 0.083852 -0.0062734 -0.024931 -0.067572 -0.042661 0.0031593 -0.0064241 0.065755 -0.10698 -0.018145 0.012915 0.02612 0.042359 0.048126 -0.031697 0.018373 -0.021524 -0.023788 0.012438 0.0020456 -0.0032774 0.071683 0.040089 0.012874 0.0013258 0.060337 -0.0031807 -0.02126 0.017331 0.034979 -0.052711 0.019481 -0.0028967 0.0024173 0.035816 0.07951 0.0030816 -0.030635
eget -0.027242 -0.064404 -0.29392 0.15191 0.15703 0.29873 0.11487 0.072259 0.10754 0.11946 -0.13888 0.038772 -0.0677 0.00048999 0.16443 -0.031677 0.079626 0.09179 -0.31081 0.10279 0.074178 -0.092749 0.014202 0.016345 0.036608 0.023716 -0.10226 0.17573 -0.17272 0.5648 0.058063 0.14992 -0.12901 0.086545 0.032703 0.019197 -0.066482 0.20927 -0.084593 -0.029212 0.19871 -0.15923 0.158 0.090039 -0.041269 -0.10749 0.19286 0.056494 0.10274 -0.16873 0.18105 0.062284 0.046427 0.14483 0.02466 -0.007097 0.14667 -0.089743 -0.075992 -0.024153 -0.15598 -0.073597 0.46032 -0.10895 -0.1121 0.12614 0.092668 -0.11758 -0.20974 0.15806 0.13959 -0.063658 -0.13246 -0.16153 0.18044 0.14947 0.014458 -0.053398 0.13522 0.032272 0.010322 -0.10583 0.11935 0.043711 -0.052697 -0.084789 -0.1677 -0.096812 -0.012817 -0.042283 0.21133 -0.011413 -0.0016217 -0.12473 -0.050291 0.10413 0.12548 0.065485 0.16919 -0.054493 -0.028186 -0.20865 0.11139 -0.065698 0.1405 0.2314 -0.002866 -0.13169 0.042689 0.04704 0.10749 -0.35776 -0.01617 0.1302 0.038759 0.014737 0.0069548 -0.35635 -0.16794 0.027211 -0.18734 -0.071783 0.32266 0.069994 0.11434 -0.083325 0.00037513 0.1559 -0.18041 0.08294 0.062884 0.074832 -0.35672 0.025514 -0.043686 0.12457 0.053503 -0.048459 0.12771 0.030569 0.14322 0.010839 0.014775 0.096975 -0.092868 -0.17031 -0.37383 -0.11061 0.042278 -0.1729 -0.079344 -0.19893 0.054461 0.014732 -0.13803 0.010724 -0.10127 0.089141 -0.23303 -0.21875 0.15633 -0.10094 -0.0070863 -0.15456 0.12983 -0.29635 0.056693 0.012665 0.12878 0.20891 -0.019578 0.21612 0.054485 -0.0019505 -0.066756 -0.2952 -0.04586 -0.20232 -0.054039 0.099585 -0.24397 0.055386 -0.11117 -0.17394 -0.033845 -0.097737 0.10383 0.025144 -0.016033 0.06281 0.04379 -0.070256 0.15266 0.076436 -0.14027 0.07418 -0.26268 0.0046733 0.0070193 0.044686 -0.072245 0.063358 -0.22961 0.076047 -0.20119 0.036244 -0.045471 -0.086589 0.049819 -0.11277 0.064485 -0.088395 -0.091265 0.27125 -0.33075 -0.098355 0.088773 0.1821 0.016622 0.056975 0.13788 -0.27756 0.0086015 0.049691 -0.18026 -0.02467 -0.029678 0.13802 0.037714 0.15068 0.0039023 -0.16283 0.031854 0.16829 -0.008982 -0.095085 0.0294 0.055724 -0.19475 -0.0043407 -0.064439 -0.083354 0.29234 0.0089719 0.32264 0.0027672 -0.20724 0.19068 0.16812 0.108 -0.21137 0.16951 -0.12107 0.0066955 -0.31059 -0.00063243 -0.0081506 -0.050961 0.20056 0.18717 0.01785 0.020169 -0.090159 -0.037979 0.20087 -0.17462 -0.090921 -0.18142 -0.17658 0.0062083 -0.31677 -0.055268 -0.23048 0.095684 -0.097654 0.15489 -0.12399 0.047112 0.21015 0.0097402 -0.18559 0.13827 0.098909 0.045781 0.029305 -0.07472 0.067352 -0.028551 0.01717 0.053588 -0.032756 0.029528 -0.0021986 0.22523 0.052819 0.036929 -0.23374 0.018337 -0.067954 -0.00051201
massa -0.010788 0.0032115 -0.081308 0.032738 -0.10812 0.013278 0.0058384 -0.12735 0.043632 0.1591 -0.13508 0.039147 0.0071428 0.050575 0.1313 -0.056543 0.024502 0.0066597 0.00071973 0.038 0.071832 -0.132 0.16333 0.049493 0.030706 0.098834 -0.044952 0.19374 -0.18782 0.21429 -0.01296 0.028697 0.063739 0.036763 -0.045253 0.11149 0.042427 0.021216 -0.052789 -0.17206 0.20395 -0.031341 0.078905 -0.070057 0.014197 0.053619 -0.085284 0.079071 -0.042397 0.16892 0.099781 0.075441 0.075805 -0.17509 -0.095494 0.00079756 -0.031882 -0.00082777 0.034142 0.031149 0.12527 -0.07324 0.12186 0.077419 -0.082988 0.10081 -0.037908 -0.093404 -0.041108 -0.0056344 0.10725 0.022966 -0.005057 -0.037094 0.010374 0.0071632 -0.015196 0.01793 -0.02724 0.038523 -0.0092008 0.14394 -0.064613 -0.11656 0.065901 -0.18527 0.026509 0.058411 0.0056943 -0.024238 0.029369 -0.22741 0.00094724 0.10079 0.032094 -0.024862 -0.0012887 -0.014812 0.027597 0.078767 -0.0097126 0.12768 -0.048473 0.011156 -0.017279 0.14302 -0.12516 -0.14708 -0.13716 -0.0083716 0.16308 0.12009 0.06533 0.059815 0.050245 0.085819 -0.016989 0.017617 -0.03346 0.048145 0.089606 0.035305 0.099801 -0.099685 0.095878 -0.082893 -0.053338 3.0818e-05 0.034306 0.083733 0.040999 -0.051815 -0.11867 0.031548 -0.025804 -0.1348 -0.03916 -0.038909 -0.1266 -0.042291 0.10221 -0.16522 -0.097708 0.010931 -0.04324 -0.034433 -0.1725 -0.047548 0.050237 0.065828 0.054868 0.038373 0.036414 -0.033497 -0.11257 -0.17201 -0.045284 -0.049699 -0.060596 0.0082148 -0.039553 0.13009 0.080831 -0.2139 0.036188 0.057716 0.060679 -0.027174 0.018971 0.020847 0.037275 0.14935 -0.080656 0.037768 0.10658 -0.22294 -0.045262 0.009778 -0.056589 0.0015759 -0.088379 -0.024852 0.15029 -0.1813 0.014202 0.044306 0.10727 -0.014317 -0.19189 -0.024035 0.088937 -0.0272 -0.011356 -0.030801 -0.090952 0.0456 -0.099104 -0.0080873 0.11729 0.004888 -0.017544 0.0033312 -0.038966 0.066124 -0.10829 -0.00040858 0.017679 -0.0032166 -0.096158 0.062709 -0.033876 0.088336 -0.043752 0.0042448 -0.15736 -0.18356 0.09246 -0.12504 0.20212 0.019709 0.0039306 -0.059056 0.085539 0.082413 -0.18947 -0.059772 0.043788 0.093323 -0.033971 0.11582 -0.022392 0.060136 0.04957 -0.013042 0.097088 0.032408 0.14362 0.0036333 -0.031347 0.0066804 -0.025573 -0.011625 0.16309 -0.12629 0.10678 0.070924 -0.050816 0.086932 0.0004999 0.079046 -0.10037 -0.0039494 -0.25585 0.26247 -0.01382 0.070957 -0.025623 0.10525 0.063399 0.11043 0.037257 -0.031768 0.0080989 0.14716 -0.0094467 -0.085083 0.0049971 -0.091129 -0.077517 0.0085631 0.0056873 0.031822 -0.088808 0.00015179 -0.11128 0.069108 -0.073112 0.016325 0.02753 -0.034803 0.042608 0.056227 -0.13572 -0.043413 -0.12974 0.11184 -0.073012 0.11417 0.013533 0.048999 0.024719 0.03002 -0.079325 0.13323 0.087276 0.03399 -0.11041 0.15358 -0.008382 0.069446
donec 0.062021 -0.078976 -0.13238 0.022228 -0.0069321 -0.076793 -0.044163 0.021092 0.043314 -0.068043 -0.023194 0.095635 -0.048015 0.079264 -0.028218 0.023853 0.042571 -0.013794 -0.023492 0.036547 -0.0043188 0.019539 0.11935 -0.010908 0.11394 -0.0078563 -0.0042903 0.22849 -0.16797 0.36186 -0.02043 0.010169 0.058688 0.051445 0.059766 0.073127 -0.010559 0.025033 0.02455 -0.0099731 0.19357 -0.087196 0.032175 0.091239 0.10214 0.065233 -0.09013 -0.0015451 0.033284 -0.05589 0.055861 0.093323 -0.049681 -0.12177 0.0013163 -0.10522 0.045254 -0.036498 -0.045489 0.065781 0.025644 -0.033426 0.31747 0.009469 -0.108 0.13761 -0.018186 0.069641 -0.17008 -0.031128 0.02499 0.10899 0.027516 -0.10821 -0.061541 -0.041858 -0.079958 0.0082202 0.092196 -0.068474 -0.0051561 0.023023 0.060283 0.12991 0.01698 0.010513 0.038324 0.062214 0.017345 -0.08223 0.033428 -0.24845 0.10452 -0.066597 -0.0055263 -0.11062 -0.0059507 0.11595 0.020615 -0.026505 0.016613 -0.042871 -0.018309 0.081058 -0.021186 0.044817 -0.14374 0.070892 0.12488 -0.059359 0.081591 0.0024715 -0.021391 -0.024612 0.079815 -0.08396 0.053014 -0.072443 0.00041666 0.014558 0.040965 -0.0037164 -0.040792 0.046301 0.014521 -0.060207 -0.025813 -0.029273 -0.068005 -0.055237 0.067111 0.10167 -0.033926 -0.12617 0.0099083 0.066864 0.0020434 0.019032 0.023014 0.17733 -0.011941 -0.017906 -0.080416 -0.065892 -0.078394 -0.062593 -0.17173 -0.097721 0.28024 0.010799 0.10996 -0.051109 -0.028873 0.073705 -0.10159 -0.019835 0.023648 -0.031474 0.046419 0.12522 0.0032551 -0.0099619 -0.0074697 -0.095981 -0.064222 0.034223 0.15246 0.043108 -0.033478 -0.010855 -0.077205 0.07947 0.046806 0.061896 -0.035049 -0.13532 -0.0099824 -0.12653 -0.21096 -0.039612 -0.076239 0.025752 -0.010265 -0.044904 0.089123 -0.020173 -0.022967 0.059884 -0.06499 0.063913 0.052958 -0.18178 0.024279 -0.03205 -0.091012 0.018886 -0.019266 0.016069 0.1331 0.18748 -0.030484 -0.0046464 0.052466 -0.0042908 0.023647 0.055165 -0.02555 -0.047399 0.041334 -0.093327 -0.057739 0.18706 -0.046387 0.10254 -0.040707 -0.043629 0.08883 0.18539 -0.077444 0.00075665 -0.090391 -0.088197 -0.048959 0.056721 -0.23715 -0.023588 0.15846 0.15226 -0.071907 0.036282 -0.021908 -0.023076 0.067444 -0.010603 0.078491 0.14593 0.056451 -0.023844 -0.15621 0.081919 -0.071689 -0.047695 0.07353 -0.0070761 0.2168 0.12786 -0.20104 0.083174 0.061523 -0.01696 -0.30145 0.061931 -0.078197 0.069645 0.1105 0.018057 0.015563 0.058011 0.096194 0.075419 0.13535 0.028703 0.044075 -0.05084 0.04207 -0.14543 -0.10642 -0.011697 -0.071911 -0.017925 -0.067296 -0.1677 -0.069951 0.030247 0.065926 0.12112 -0.097489 -0.0062335 0.044358 -0.12448 0.065235 -0.050453 -0.011498 0.062787 0.069543 0.058784 -0.087275 0.075348 0.03402 -0.065972 -0.10909 -0.033968 0.013463 0.086463 0.085336 0.15263 0.016552 0.17179 -0.091504 -0.091343
felis -0.020381 0.037833 -0.17782 -0.041507 0.14253 -0.046188 -0.019831 -0.10628 -0.10972 0.036904 0.019698 -0.029854 -0.061504 -0.070564 0.085129 -0.15918 0.07194 -0.22946 -0.025593 0.13492 -0.021054 -0.1325 0.079187 0.10836 0.15495 -0.16797 -0.062998 0.092241 -0.15153 0.34927 -0.032396 0.0078885 0.032022 0.035557 0.054007 -0.20286 0.019686 0.085828 0.028646 -0.04739 0.12281 -0.045604 0.039569 0.04449 0.20116 -0.079228 0.13737 0.033847 -0.044641 0.11186 -0.084477 0.13064 0.041495 -0.083666 -0.16065 -0.0075329 0.010259 0.0025484 0.031118 0.17698 0.13757 0.12572 0.17835 0.1205 -0.074721 0.09628 0.12825 -0.0036469 -0.17072 0.067427 0.21786 -0.073386 0.0088669 0.0063477 -0.12658 0.043775 0.060888 0.051851 -0.068392 0.0074118 -0.055018 -0.065711 0.0034257 -0.00077048 -0.076649 0.044022 -0.12641 0.13228 0.041635 -0.0622 0.0022552 -0.24199 -0.048396 -0.13539 -4.4899e-05 -0.079062 0.076421 -0.10377 0.046499 -0.02194 -0.12295 0.02498 -0.033103 0.012617 0.015422 0.24239 -0.13752 -0.0001538 0.18868 -0.06758 -0.062451 -0.11202 -0.10682 0.080872 0.14804 -0.16452 -0.017727 -0.025549 -0.032867 -0.037067 0.012485 0.084507 0.18638 -0.11264 0.048868 -0.03723 0.04981 0.046116 0.040409 -0.074782 0.054644 -0.075884 -0.00034913 0.0057557 -0.010519 0.091634 -0.14071 0.12246 -0.017638 -0.10472 0.057257 -0.021875 0.063748 -0.056503 -0.016197 -0.03168 -0.30105 0.14249 0.1355 -0.063381 -0.0018993 0.038457 -0.19597 -0.035705 -0.11311 -0.017761 -0.12903 -0.033488 0.015213 -0.059638 -0.19334 0.054568 0.14765 0.013202 0.10346 -0.12943 0.23791 -0.0036423 -0.15403 -0.061826 -0.14615 0.24252 -0.066657 0.0052335 0.015558 0.053366 0.09487 0.15937 -0.12501 0.13324 0.11819 -0.011619 -0.082337 -0.32992 0.15223 0.0497 0.20519 0.086072 -0.13059 0.047251 0.035084 -0.12854 -0.0081822 -0.010697 0.052464 0.029675 -0.14749 0.11591 0.0093036 0.032918 -0.0036799 -0.063319 0.023099 0.016094 -0.066604 -0.14542 0.039478 0.090583 -0.011387 -0.18663 -0.015536 -0.03207 0.056218 0.20705 -0.015892 0.010359 0.12696 0.060096 0.17621 0.039574 0.20075 -0.1008 0.078164 0.089252 -0.20054 -0.068089 -0.046125 0.15443 -0.0057749 0.10064 0.056226 -0.17985 0.14754 -0.047454 0.00058527 0.079885 -0.071072 0.067578 -0.11451 0.09892 0.040365 -0.049887 -0.10724 -0.065988 0.12788 0.0083795 -0.12106 -0.14959 -0.11947 0.081525 -0.1758 0.14368 -0.095338 0.038601 -0.1549 0.016897 0.11297 0.11351 0.1088 -0.1199 -0.070772 -0.11394 -0.021971 -0.012469 -0.058149 -0.055787 0.0076639 0.075577 -0.076042 0.094419 -0.038742 -0.12237 0.05753 0.076707 -0.053456 0.14382 -0.11913 0.05956 -0.02625 -0.064309 0.032391 0.098694 -0.075837 0.089436 0.0075186 0.092809 0.013357 0.032276 -0.028048 -0.15438 -0.0086904 0.099504 -0.0062886 0.14633 0.077083 -0.10462 -0.14161 0.092322 -0.18889 0.018975
nec -0.1302 -0.055725 -0.50014 0.16541 0.088577 -0.072921 0.044964 -0.17524 -0.09074 -0.21391 0.004065 -0.024781 -0.10738 -0.2504 0.081902 -0.10375 -0.047859 -0.19042 -0.28042 -0.00086038 -0.18094 -0.28708 -0.0039993 0.32093 0.14511 0.056773 0.094965 0.16723 -0.35158 0.39791 -0.21134 -0.061652 -0.017861 -0.059545 -0.029775 -0.032527 -0.058332 0.097944 0.078082 -0.3705 0.042908 -0.11585 -0.055569 0.0092404 0.12461 0.057331 0.10618 0.066157 -0.16983 -0.17275 0.50505 -0.071169 0.22805 -0.091556 -0.017252 -0.1203 0.13957 -0.15526 -0.022655 0.014929 0.080309 -0.0016516 0.28739 -0.059135 -0.099193 0.13156 -0.014324 0.1081 0.070801 -0.25457 0.15141 -0.026522 -0.08352 -0.45813 0.085366 0.17526 -0.041997 0.021414 0.097808 0.043041 -0.30163 0.088048 0.27779 -0.083715 -0.023099 -0.23503 -0.13299 -0.053713 -0.10858 0.016746 0.22215 -0.20434 -0.11704 -0.15795 0.14512 -0.04567 -0.10475 0.16774 -0.026715 -0.055216 -0.023665 0.011154 0.1792 0.14783 0.15052 0.051291 -0.4738 -0.33948 0.12381 -0.14629 0.13323 0.017167 -0.13314 -0.18686 0.071512 -0.0060945 0.16745 0.028967 0.066478 -0.062761 -0.23968 0.18407 -0.13261 -0.089931 0.0051258 -0.076746 0.059934 0.23759 -0.21071 -0.14203 -0.1871 0.074978 -0.12789 -0.27905 0.12856 0.13867 -0.090182 -0.11441 -0.24978 0.2095 0.098966 0.24948 0.086435 -0.015665 -0.078152 -0.10388 -0.19786 0.092069 0.42465 0.10373 -0.025731 0.026691 0.0082239 0.15015 -0.11077 -0.24948 0.044835 0.047398 -0.016878 0.0013567 -0.085298 -0.072577 0.27451 -0.36168 -0.095765 -0.18849 0.12132 0.088814 -0.31207 -0.072817 0.20649 0.035413 0.055066 0.034392 -0.02336 0.062702 -0.073475 0.20446 -0.14993 -0.41524 -0.012475 -0.061666 0.15852 -0.087461 0.09721 -0.21623 0.13184 0.12598 -0.091389 0.055307 -0.088121 0.17225 0.080924 0.073086 -0.067343 0.21892 0.12485 -0.19255 0.22076 -0.05825 -0.12022 0.11327 -0.10658 0.011192 0.013223 -0.059117 -0.10651 -0.15867 0.05935 -0.16532 -0.081603 0.13414 -0.19552 0.036403 -0.016209 0.045662 0.14509 0.15977 0.11561 -0.041771 -0.20007 0.0010349 -0.077244 -0.099508 -0.31756 0.20713 0.086552 0.18307 0.10478 0.17921 0.043806 0.072723 0.027783 -0.14184 0.19746 0.06454 0.010005 -0.00031301 -0.34207 0.085739 -0.082613 -0.027078 0.0017889 -0.16565 0.4232 0.096069 -0.03575 -0.13627 -0.056717 -0.080779 -0.11569 0.13879 -0.064879 -0.12975 -0.1089 -0.070237 0.10241 -0.056944 0.25952 -0.32586 -0.086267 0.027457 0.022122 0.15095 -0.055851 -0.32743 0.011195 -0.063979 -0.24865 0.079331 -0.10908 0.12063 -0.004678 0.14646 0.1237 0.13198 -0.02493 0.11394 0.083478 -0.11434 -0.0060937 0.038191 -0.055904 0.035658 -0.06726 0.15194 0.073647 -0.18847 -0.015885 -0.14758 0.091381 0.045439 0.13113 0.32271 -0.010704 0.039957 0.18633 0.33201 -0.043537 -0.2696
eu -0.21184 -0.82059 0.19057 -0.01421 -0.43149 0.24326 -0.63211 0.30314 -0.065918 0.37501 0.29545 -0.34004 0.56538 -1.0789 0.35858 0.19944 0.46364 -0.36993 -0.38152 -0.031485 0.053545 0.80973 0.38957 -0.34932 0.5908 0.041872 0.31818 0.37665 -0.8054 1.941 -0.24939 0.33683 0.040067 0.08142 -0.11925 0.27987 -0.28499 0.11966 -0.035914 0.15599 0.60192 -0.98308 0.19867 -0.34748 -0.17281 -0.084476 0.0093555 0.019405 0.0077381 0.034591 0.42184 0.54061 0.28307 -0.051771 0.30296 0.065234 -0.32523 0.19405 0.29436 -0.46653 0.41933 0.904 -0.40497 -0.1871 -0.52909 0.39346 -0.092108 0.647 -0.44695 -0.27197 0.40962 -0.39106 -0.13913 -0.47488 0.32822 0.19419 -0.38122 0.33796 0.13746 0.29241 0.067955 0.42368 -0.076222 -0.22604 0.18696 -0.5019 -0.43009 0.54003 -0.15777 -0.46884 0.28311 -0.049763 -0.41743 0.4974 0.089691 0.13207 -0.16244 -0.54395 -0.6044 -0.4297 -0.12197 -0.40592 0.31102 -0.32074 0.69706 0.90937 -0.54967 -0.31955 -0.39719 0.35653 0.33271 0.34385 0.19435 0.20023 1.053 0.0038851 0.0095745 0.45138 -0.17979 0.56128 0.5506 0.22101 0.6172 -0.23976 -0.054342 -1.0502 0.45654 -0.034333 -0.56174 0.51394 -0.58596 -0.46607 -0.038061 -0.13695 0.44912 -0.21173 0.098844 -0.4665 0.34783 0.061696 -0.59715 0.030096 -0.23333 0.024304 -0.11057 -0.70357 -0.74984 0.32066 0.52832 -0.37404 0.077399 -0.43308 0.21594 -0.40056 0.67718 -0.67666 0.17276 -0.0029148 -0.51966 -0.15018 -0.12128 -0.52913 0.5192 -1.1716 -0.058398 -0.25832 0.14509 -0.40848 -0.30426 -0.36299 -0.62828 -0.072012 0.33114 0.19865 0.29113 -0.52656 -0.041463 -0.42804 -0.75729 0.90957 -0.18542 0.41526 0.30149 0.052938 0.49015 -0.86417 0.42969 -0.011816 -0.050393 -0.14456 -0.20064 -0.94376 -0.25657 0.055176 0.53496 -0.4396 -0.4262 -0.2529 0.20354 -0.45802 0.2542 0.28537 -0.13658 -0.32905 0.53824 0.42605 0.34085 0.13492 0.011371 -0.29901 -0.38515 0.6155 -0.14199 -0.23952 -0.51695 -0.085338 -0.17801 0.89565 -0.28062 0.10601 -0.18015 -0.31224 -0.35452 -0.28133 -0.78737 -0.58121 -0.24416 0.26888 0.074199 0.3292 0.25885 0.38033 -0.17159 -0.060029 0.61654 0.29686 -0.72703 -0.088659 -0.22493 0.26052 -0.14894 -0.024304 0.97119 -0.092791 1.1057 -0.21321 -0.22804 0.012172 0.20189 0.29473 0.27713 0.76521 0.027726 -0.075534 -0.19797 -0.69462 0.55894 -0.030365 -0.22663 -0.2585 -0.20561 0.13493 -0.20555 0.53428 0.035195 0.22296 -0.17936 -0.51562 -1.0589 0.41931 0.13 -0.44001 -0.079007 0.067245 -0.06266 0.71576 0.018735 0.27527 -0.12433 0.13782 0.48396 -0.35824 -0.11079 0.24597 -0.50089 0.62392 0.016387 0.035016 0.53121 0.20425 -0.070975 0.29673 -1.3068 0.48827 0.048845 0.80369 -0.34959 0.40767 0.21571 0.41083
pretium -0.031129 -0.076466 -0.0733 -0.0050216 -0.0026243 0.053484 -0.0057032 0.043277 -0.061406 -0.10562 0.054495 0.029954 -0.011946 -0.076192 -0.036009 -0.090608 0.0097353 -0.11144 -0.026742 -0.081573 -0.0010182 -0.0028383 0.079249 -0.022725 0.027604 0.040599 -0.011778 0.14675 -0.11478 0.29612 -0.0069067 -0.019779 0.092997 0.023291 0.073087 -0.068451 -0.007238 0.045843 -0.08663 -0.01025 0.083913 -0.085409 0.087276 0.031184 0.035602 -0.0062042 0.025536 -0.028515 -0.068918 0.03276 -0.0076301 0.010878 -0.01268 -0.044318 0.062489 -0.0015754 0.023722 -0.07285 -0.011295 -0.071684 0.034186 -0.0088319 0.18279 -0.026093 -0.075945 0.099336 0.042729 0.00043916 -0.06957 0.026735 0.07636 -0.0003094 -0.039333 -0.085362 -0.047398 -0.016584 0.067658 0.041257 0.031514 0.032264 -0.078596 0.093172 0.0027451 -0.020957 0.00082466 -0.01633 -0.031989 0.045824 -0.05463 0.03833 0.11605 -0.058724 -0.035357 -0.034104 0.074622 0.011762 0.033567 0.036012 0.085759 -0.059835 0.0066509 -0.086797 -0.024893 0.03981 0.0085043 0.10266 -0.11298 -0.022803 -0.020185 -0.064984 0.0024248 -0.065942 -0.068909 0.011563 0.071412 -0.034495 0.0080244 -0.033072 -0.0013136 -0.042011 -0.013131 0.068086 0.033393 0.03015 -0.065536 -0.042444 -0.0297 -0.032869 -0.090332 0.047626 0.023534 -0.083681 0.045555 -0.033015 -0.016178 0.073095 0.079925 -0.059324 0.028337 -0.010257 0.038629 0.0035181 -0.026966 -0.013626 -0.011808 0.025661 -0.11922 -0.10119 0.10693 0.057574 0.0087886 -0.047406 -0.035832 -0.077605 0.0045428 -0.11587 -0.039229 -0.064907 0.001877 0.01603 -0.03202 -0.0076674 -0.0082044 -0.057423 -0.031687 -0.10759 0.037957 -0.050595 -0.0020302 0.0094551 -0.11835 0.020268 0.022009 -0.0081787 0.021383 -0.079604 -0.0031485 -0.030946 -0.13713 0.011138 -0.026325 -0.066468 -0.064825 -0.082383 -0.076247 -0.04671 0.076336 0.058066 -0.053969 0.022619 0.075923 -0.036058 0.0026779 0.079715 0.046386 0.00513 0.014455 0.065931 0.15898 0.0039499 0.028299 0.019759 -0.080149 -0.037886 -0.035014 0.065172 -0.043917 -0.0022247 -0.019243 -0.057129 -0.059615 -0.044231 -0.0044425 0.15018 0.0055776 -0.0090835 -0.079746 0.10129 0.073965 0.049624 -0.078164 -0.048945 0.027782 0.092867 -0.10326 0.15776 0.073602 0.086908 0.074556 0.068966 0.02849 -0.14472 0.0073185 0.01753 -0.015007 -0.024221 0.032762 0.029177 -0.069129 -0.088106 0.01626 -0.10494 0.067274 -0.1049 0.17426 0.021236 -0.18106 0.10874 0.049481 0.043776 -0.15889 0.023404 -0.036079 0.035171 0.060389 -0.032247 -0.010363 0.10855 0.10231 -0.020276 -0.00012951 -0.015777 -0.0034014 0.042432 0.058259 -0.099373 -0.043504 -0.058729 0.02658 -0.037248 -0.14569 -0.038213 -0.057891 0.033522 0.029381 0.056388 -0.063217 0.053221 0.038317 0.011932 0.032822 -0.006258 -0.013773 0.10203 0.018047 -0.05277 -0.067547 0.063229 -0.05996 -0.13018 -0.0019096 -0.022317 0.066139 0.10954 -0.010124 0.068132 -0.0083043 0.062433 -0.025793 0.060034
quis 0.022941 -0.14086 -0.10106 -0.012665 -0.015132 -0.089602 -0.097246 0.12867 0.06123 -0.014192 0.072877 -0.032722 -0.23741 0.17067 -0.0054928 -0.0991 0.046864 -0.18594 -0.19763 0.049089 -0.022064 0.17716 0.11462 -0.001656 0.061565 -0.12042 -0.073873 0.24777 -0.3295 0.22776 -0.13724 0.076822 -0.083545 0.023609 0.14041 -0.068977 0.0022995 0.012623 -0.0012241 -0.0015335 0.12587 -0.149 0.24413 0.090673 -0.010452 0.082104 0.0087348 0.035968 0.056633 0.047027 0.11124 -0.022131 0.10559 -0.017922 -0.13083 -0.11593 0.17965 0.013123 0.073023 -0.079366 0.17229 0.044271 0.36051 -0.089199 -0.13111 0.14172 0.034288 0.23661 0.0061296 0.023966 0.19764 0.086965 -0.016311 -0.1008 -0.036772 -0.0062186 -0.049464 -0.050183 0.050197 0.12055 -0.13604 0.056122 0.10103 -0.02954 -0.090215 -0.093114 -0.038473 -0.00033769 -0.082798 -0.015247 0.019287 -0.073797 0.12889 -0.0035378 -0.046622 -0.029922 0.036971 0.040308 0.10245 -0.053992 -0.046241 -0.028907 -0.031724 0.0079148 -0.045511 0.18913 -0.048422 0.17179 0.11006 -0.10028 0.22987 -0.046791 -0.013212 0.045441 -0.070254 -0.21637 0.02844 -0.084935 0.045704 -0.079406 0.063846 0.037461 0.24846 0.056471 0.026576 -0.032092 0.05411 0.13776 0.13 0.026167 0.13456 -0.042868 -0.093631 -0.065467 0.072787 -0.014449 0.055846 0.22291 0.093681 0.12651 -0.0084134 -0.054373 0.051457 0.043511 -0.064912 0.098973 -0.15429 -0.10015 0.11451 0.11692 -0.091897 -0.096623 -0.063894 -0.096175 0.0023973 -0.1058 -0.02118 -0.13111 0.15001 0.046995 -0.2008 -0.064779 0.030798 -0.22362 0.077165 -0.078587 0.038032 0.025963 -0.1675 -0.020304 -0.041789 0.045017 0.061713 -0.042692 0.093425 -0.18076 -0.080109 0.056421 -0.12623 -0.028355 -0.095857 -0.021972 -0.050069 -0.16849 -0.11489 -0.087219 0.10763 0.029769 0.048501 0.060666 0.023676 0.015268 0.049395 0.040585 0.013891 0.0055893 0.069481 -0.036183 0.13835 0.061909 -0.029331 0.1504 -0.01758 -0.10827 -0.10845 -0.036254 0.017466 0.017367 -0.016693 -0.13084 -0.098474 0.15262 -0.079894 0.003302 0.029974 0.26317 0.064239 0.26483 -0.072104 -0.17054 0.084893 0.067225 0.033621 -0.060579 -0.22865 0.10919 0.10732 0.012815 0.094049 0.0095956 0.077392 -0.034523 0.0048081 0.097693 0.13448 -0.043002 -0.059956 0.13864 -0.3308 -0.24208 -0.13652 -0.17835 0.027932 -0.039747 0.30157 0.16798 -0.2253 0.15645 -0.026645 0.02902 -0.28878 -0.019505 0.047843 0.016938 -0.033577 -0.098889 -0.085952 0.047616 0.25175 0.012029 0.10722 -0.050823 0.070585 0.024606 -0.057181 -0.10035 -0.052246 -0.016853 -0.066638 0.092945 -0.01828 -0.056019 0.058717 0.15525 0.060802 0.19434 0.0064455 0.029401 0.052127 -0.0949 -0.041626 -0.037631 -0.053449 0.17451 -0.020656 -0.11828 0.045291 0.10243 -0.014913 -0.23957 0.15183 0.11946 -0.072393 0.002575 0.045185 0.16935 0.058833 0.26015 0.014898 0.12802
enim -0.0048049 -0.18084 -0.19668 -0.0010274 0.0065107 -0.090311 0.024757 0.11097 0.049446 -0.069089 0.052884 -0.049206 -0.13385 -0.03895 -0.012548 0.04787 0.22223 -0.031206 -0.13214 -0.0088103 -0.16726 0.15244 0.22374 0.16941 -0.029538 0.00097351 -0.022589 0.24253 -0.23376 0.55228 -0.025064 0.22311 0.11013 0.038874 0.084297 -0.078715 0.032255 0.020653 -0.050676 -0.041051 0.12658 -0.0053774 0.30357 0.19837 -0.032143 0.032493 -0.13221 0.0011038 -0.10159 0.058961 0.16039 0.061055 0.074699 -0.031223 -0.058799 -0.21313 -0.049456 -0.097583 0.057498 -0.13842 0.083133 -0.096892 0.42996 0.04826 -0.11875 0.37428 0.14762 0.14303 -0.065095 -0.049342 0.30802 -0.13869 0.016819 -0.23379 -0.075012 -0.25401 0.010428 0.083304 -0.10534 -0.12145 -0.42042 0.069945 0.020064 0.1104 -0.049938 -0.18479 -0.0267 0.0092989 -0.034108 -0.020274 0.027321 -0.14137 0.028484 -0.12347 0.036345 0.046335 0.0062248 0.029464 0.034399 -0.085853 -0.1592 -0.11168 0.032499 0.091673 -0.031491 0.16573 -0.11971 -0.075481 0.16932 -0.00049807 0.02778 -0.35584 0.035912 -0.075934 0.20275 -0.036215 0.03988 -0.17687 -0.15341 -0.086625 0.046835 0.083986 0.21314 0.030609 -0.10953 0.062669 0.011925 -0.032535 0.015659 -0.067531 0.056504 0.086226 0.18481 -0.043477 0.0065562 0.064832 -0.053027 0.19569 0.19015 0.18559 -0.046252 0.12506 0.018021 0.025698 -0.077025 -0.0055619 -0.31729 -0.13188 0.15468 0.015408 -0.098349 0.13756 -0.1815 -0.061357 -0.23671 -0.10542 0.047535 -0.20138 -0.018735 0.076612 -0.2347 -0.03568 0.073311 -0.17249 0.02034 0.018817 0.20763 -0.11642 -0.10388 0.047687 -0.097581 -0.010402 0.14654 0.14004 -0.073908 -0.22775 0.22259 -0.068359 -0.13473 0.093137 -0.0023383 -0.031218 -0.14253 -0.1674 -0.098108 -0.1779 0.11015 0.036205 -0.071857 0.020526 -0.040157 -0.1057 -0.13284 0.049065 -0.034654 -0.0041244 -0.092748 0.10006 0.2101 -0.1049 -0.024781 0.0096364 -0.041078 0.013923 -0.17352 0.010097 -0.0094275 -0.038262 0.011758 -0.21277 -0.14752 0.19685 -0.10039 0.19112 0.14792 0.15349 0.021977 0.12881 -0.03144 -0.10437 -0.26972 -0.045835 -0.15856 -0.015186 -0.19665 0.24727 0.14507 0.21151 -0.01162 0.2013 0.12336 0.11604 0.098795 -0.099568 0.065425 -0.035386 -0.03838 0.17573 -0.21845 -0.11368 -0.11064 -0.11348 0.06983 -0.1169 0.50685 0.083646 -0.28001 0.029871 0.016764 0.0018696 -0.27307 0.097168 -0.11754 0.053418 0.038168 -0.0044597 -0.19494 0.14266 0.23362 0.089533 0.14987 -0.0039526 -0.10052 0.13116 -0.053364 -0.085376 -0.11087 0.0041358 -0.19119 0.20087 -0.078265 -0.06776 -0.0090858 0.068265 0.081518 0.15319 0.034428 0.026399 0.24682 -0.13425 0.15444 0.004276 0.061774 0.15086 0.086289 0.090736 0.17979 0.17102 0.099534 -0.13616 0.019481 0.026692 0.20347 0.097639 0.11117 0.21361 0.083526 0.17732 0.10208 0.014953
pede -0.022265 -0.15535 -0.25518 0.10625 0.033319 -0.081829 0.044283 -0.020031 0.046553 -0.033136 -0.02012 0.12286 0.013752 -0.029684 -0.091297 0.033506 -0.048814 -0.18527 -0.16807 -0.016915 -0.037854 -0.07706 0.1307 -0.024968 0.10428 -0.078116 0.095725 0.15122 -0.023383 0.29513 -0.04972 0.18699 0.013517 -0.021977 -0.020048 -0.019456 -0.065693 0.05433 0.0046198 0.023576 0.10708 -0.061992 -0.047067 0.12226 -0.053322 0.044743 0.035753 -0.065285 -0.026603 -0.048887 0.060003 0.19088 0.015184 -0.13025 -0.07674 -0.20573 -0.018578 -0.12275 -0.025195 -0.095655 0.0080028 0.02569 0.25197 -0.003694 0.061477 -0.0039639 -0.30954 0.014103 0.045734 -0.07689 0.20247 -0.10664 -0.17047 -0.04515 -0.10247 -0.059021 -0.13249 -0.1132 -0.055787 -0.0021147 -0.09303 0.12248 0.10771 0.01167 0.14004 -0.094096 -0.050529 0.033938 -0.19778 -0.059248 -0.13193 0.077726 0.092549 0.0024364 -0.042797 -0.019263 0.041225 0.20589 -0.079565 0.04333 -0.026332 -0.11395 0.089522 0.092872 -0.048579 0.37743 -0.033847 -0.12619 -0.011579 -0.19689 0.18539 0.093281 0.19474 0.012846 -0.036424 0.018242 0.16312 0.1065 -0.19125 -0.077753 0.046594 0.026988 0.13609 -0.16141 0.15665 -0.10232 -0.043448 0.12265 -0.017391 0.082613 0.083741 -0.12327 0.045125 -0.074887 -0.011465 0.12592 0.035209 0.070007 0.048829 0.19843 0.019534 -0.05888 0.068216 -0.19507 -0.020446 -0.0070887 -0.17657 -0.041275 0.063804 0.025824 -0.013211 -0.12403 -0.055511 -0.063706 -0.029431 -0.15108 0.0082539 -0.15638 0.21954 -0.029018 0.2286 0.071112 -0.035205 -0.23406 -0.053964 0.1778 0.15627 0.026215 0.064115 0.10395 -0.10598 0.20606 -0.14271 -0.028409 0.13786 -0.041352 -0.050622 0.089714 -0.04201 0.17725 -0.1596 0.068875 0.11386 -0.13528 0.0676 0.061042 0.09266 -0.032876 -0.1507 -0.04479 -0.10085 -0.054123 0.16995 -0.16922 -0.047427 -0.17363 -0.047058 0.10427 0.28077 0.045637 -0.10987 0.042667 -0.059103 2.7619e-05 0.034866 -0.036257 -0.019607 0.12829 0.089898 -0.085506 -0.052792 -0.037407 -0.0054873 0.14539 0.17988 -0.12557 0.12308 0.12774 0.20191 -0.043406 0.057702 -0.10047 0.14859 -0.069507 -0.15163 -0.027604 -0.04442 0.0049358 0.069559 0.18338 -0.11635 0.011562 0.028313 -0.18235 0.13135 0.036007 -0.014086 0.037731 -0.088627 -0.049003 0.25621 -0.041424 -0.029108 -0.093904 0.20936 0.23721 -0.057141 0.13637 -0.061124 0.10746 -0.17893 0.059244 -0.17316 0.13655 0.16981 -0.015806 -0.061211 0.084571 0.16901 -0.13212 -0.010537 -0.13054 0.085458 -0.033823 -0.0083448 0.10753 -0.18404 0.082669 -0.07361 0.034745 -0.12774 -0.053892 0.018785 -0.049362 -0.031468 0.017725 -0.035506 0.08042 -0.090896 -0.022508 -0.031144 -0.035857 -0.088212 0.18796 -0.034947 0.050675 0.045429 -0.20036 -0.046726 -0.13911 0.044863 0.075604 0.077052 0.060785 0.1395 0.028633 0.033834 0.18009 0.1811 -0.1232
title -0.059397 0.040238 0.021163 0.044048 0.080998 0.01951 -0.05189 -0.0095943 -0.050363 0.061991 -0.033784 -0.042279 -0.12991 0.064785 -0.027329 0.057127 0.048468 -0.010124 0.11397 -0.036946 -0.11206 -0.02084 -0.04636 0.034453 0.048331 0.0027344 0.023243 0.061224 -0.053467 0.062085 -0.056111 0.033615 -0.015166 -0.11716 -0.07998 0.004248 -0.045069 -0.061674 0.022894 -0.06549 0.0057135 -0.011394 -0.032236 -0.044687 -0.061284 0.045389 0.019416 -0.065184 -0.023259 -0.049972 -0.013162 0.047308 -0.0038048 0.032445 0.036458 0.046978 -0.093035 -0.037641 -0.040413 -0.0044606 0.076004 -0.068026 -0.068185 0.030072 0.0040468 -0.037266 -0.036552 -0.0083265 -0.063486 -0.03146 0.014799 0.026779 -0.039159 -0.050347 -0.040801 0.022226 0.10902 0.091715 -0.028048 -0.012233 0.032395 0.065104 0.047074 0.016596 -0.028034 -0.013433 -0.071796 -0.085779 0.12593 0.07037 0.030368 -0.061317 -0.025511 0.0073867 0.12786 0.060057 -0.007949 -0.030129 0.024181 -0.084823 0.19459 -0.025578 0.028678 0.12861 0.026487 0.016009 0.12275 0.013838 -0.056597 -0.035062 0.011155 -0.015037 0.019541 -0.052458 -0.060979 0.0047093 0.0030286 0.046027 0.0090938 0.023497 0.054004 -0.07481 0.019129 -0.0048067 -0.069724 0.09057 -0.076428 0.028729 -0.12692 0.049707 -0.02228 0.027 -0.015705 -0.0049427 -0.028343 0.032718 0.047401 -0.036993 -0.0038812 -0.020823 -0.036601 -0.0594 0.076332 -0.088846 -0.060834 0.020574 -0.17099 -0.070979 -0.039016 -0.027287 0.019169 -0.039421 0.048281 0.041974 0.0093282 0.016054 0.09891 0.051344 0.085594 0.098295 0.052285 0.036005 0.091681 -0.03069 -0.01562 0.058208 0.17638 -0.056915 -0.005856 -0.010672 0.059972 0.038859 -0.0018331 0.028917 -0.087698 0.040657 0.01285 0.0014399 -0.03198 0.039558 0.0066888 0.029076 0.03346 -0.018058 -0.1074 -0.019704 -0.052925 -0.038859 0.12839 0.04612 0.0023606 -0.031874 0.037092 0.059724 -0.042482 0.032514 0.047986 0.045497 -0.11023 0.028121 -0.066459 0.00519 0.10112 0.1221 0.0095946 -0.048757 0.02614 -0.10417 0.040469 0.034295 -0.037425 -0.0419 -0.013448 -0.083623 -0.0069906 -0.0021778 0.036661 0.035067 -0.0068295 0.11073 -0.0199 -0.10542 0.00084201 0.0038696 -0.068053 0.038066 -0.067617 -0.058385 -0.014797 0.0011313 -0.0061822 0.029601 -0.051515 0.095398 0.014985 -0.024186 -0.088486 0.042554 -0.068621 -0.031789 -0.045163 0.014203 -0.086219 -0.021838 0.097357 0.11529 -0.16848 0.089328 -0.092944 -0.018724 0.0036337 -0.038258 -0.023264 0.06548 0.036222 0.031609 -0.0053447 -0.026718 -0.054453 -0.022756 0.12651 -0.035973 -0.038651 0.055373 -0.017994 0.035269 0.029744 0.060236 0.039061 -0.063047 -0.022277 -0.11211 0.034429 -0.071309 -0.032847 0.017854 -0.050032 -0.00016391 -0.08199 -0.019778 -0.038898 -0.049467 -0.037295 -0.10199 -0.010235 -0.027844 -0.047643 0.015977 -0.083349 0.017777 0.10609 -0.062835 -0.019776 0.05498 -0.016222 -0.024671 -0.10256 0.037012 -0.1074 0.053999
of -7.3038e-05 -0.18774 -0.071051 -0.46325 0.00019783 0.011507 -0.05877 0.057424 -0.027523 -0.0035552 -0.0097929 -0.041395 0.093477 0.054073 -0.19595 -0.29095 -0.063241 0.04658 -0.016016 0.030755 -0.067919 0.092686 -0.013569 -0.014274 -0.24648 -0.12213 -0.030555 -0.019541 -0.023876 0.19385 0.085707 -0.02314 0.11456 -0.16689 -0.056397 -0.069655 0.41561 0.096976 -0.038181 -0.053976 -0.032693 0.10352 0.14758 -0.02861 -0.097731 -0.58613 -0.034828 -0.15964 0.036805 0.034981 -0.12744 -0.07664 -0.21874 -0.10197 0.029214 -0.061099 -0.12476 -0.12258 -0.15608 0.0025683 -0.056735 -0.012803 0.019916 -0.20576 0.017204 -0.0016668 0.081627 0.012284 0.037114 0.035214 0.6317 0.10095 0.084195 0.033921 0.017377 -0.15896 -0.023561 0.0064649 0.43839 -0.13262 0.083774 -0.021634 -0.012522 -0.0029243 0.15919 0.024804 0.3087 -0.73406 -0.1604 0.18091 -0.074711 0.00041486 0.03396 -0.062869 0.25211 -0.13147 -0.10916 -0.08676 -0.019712 0.013091 0.12461 0.027159 0.018812 -0.21497 0.020878 0.037788 -0.0092071 0.039063 0.082593 -0.016933 -0.089291 0.12334 -0.034172 0.51116 0.027822 0.036927 0.018228 0.039037 0.02224 -0.044041 0.050446 -0.13053 -0.032224 -0.039901 0.036436 -0.005998 -0.036327 0.19068 -0.049338 0.49242 0.027791 -0.012596 0.13772 0.16197 0.077733 0.048765 0.30741 -0.069893 0.051144 -0.0823 -0.086881 -0.088543 -0.0049301 0.06232 0.34023 -0.10098 -0.77931 0.054845 -0.036386 -0.025525 -0.25371 0.12847 0.24627 0.097603 0.017858 0.075651 0.32094 -0.26192 0.033632 0.07673 0.029634 -0.06759 0.20801 0.02272 0.069154 0.044196 0.033843 0.13493 -0.017197 -0.13761 -0.053004 0.0074305 0.10892 0.00089257 -0.03558 0.010752 0.020942 0.093179 0.0039099 0.039303 0.013805 0.23752 -0.15118 0.093549 -0.014889 0.24406 0.19103 -0.16383 0.0033796 0.041164 0.055321 0.055526 -0.082895 0.051622 0.058004 -0.011535 -0.024954 -0.0066067 0.059195 0.024108 -0.038954 0.61121 0.060131 -0.0083063 0.045739 0.061616 0.0047579 0.081169 0.049525 0.18261 -0.16362 0.068501 -0.15361 -0.050998 -0.075116 -0.0082408 0.14367 -0.025093 0.089744 0.2579 -0.035493 0.088068 -0.016615 -0.26155 -0.077399 0.26393 0.04257 0.011268 0.027954 0.027013 0.022992 0.010244 -0.11275 -0.04355 0.086595 -0.022068 0.027706 -0.26338 -0.069526 0.044395 0.041915 0.21725 -0.14823 0.012451 1.4608 -0.025311 0.068132 0.086596 -0.036418 0.11173 -0.15934 0.070948 0.097961 -0.039462 0.064589 -0.18757 0.0071625 0.0046693 -0.33547 0.02116 -0.0011078 -0.14057 -0.094564 -0.041235 0.22406 0.065921 0.037938 -0.073667 0.15408 -0.035317 -0.0093975 -0.047048 0.16239 -0.24743 0.16953 -0.17054 0.30223 -0.46176 0.10294 0.18952 0.099767 0.012401 -0.12217 -0.083692 0.073188 -0.05518 0.054479 0.11234 -0.020947 0.066823 -0.4615 -0.0032601 -0.1103 0.20951 -0.12908 -0.025329 -0.00012985 0.028464 -0.13843 0.018054
reference 0.058644 0.037424 0.0075594 0.026605 0.018093 -0.062518 0.021162 -0.0062701 -0.021468 0.023319 -0.0022271 -0.012808 0.027053 0.052182 -0.051718 0.0015657 -0.0054032 0.00034574 0.026836 -0.023219 -0.0040608 -0.0040875 0.021341 -0.037052 -0.032649 0.010521 0.011138 0.013712 -0.014167 0.015735 -0.05207 0.026641 -0.027261 -0.038428 0.019263 -0.0016536 0.03199 -0.014882 -0.012852 -0.0061227 0.027183 -0.020141 -0.025366 -0.024541 -0.037864 0.011312 0.016879 -0.022011 -0.011843 -0.012621 0.0010805 0.019439 -0.015521 0.012847 0.02921 -0.019995 -0.071132 -0.00096701 -0.044073 0.052018 0.0065894 0.016482 0.013106 -0.017787 -0.012587 -0.016105 -0.0089143 -0.022724 0.031284 -0.0047138 -0.019216 -0.041505 0.017874 0.026799 -0.029069 0.018063 0.031934 0.044584 -0.025152 0.0060149 0.024769 0.013677 -0.013844 0.044626 0.011494 -0.0029489 -0.013892 0.013362 0.0097546 0.012389 -0.042357 0.025306 0.038254 -0.0049901 0.016135 0.011177 0.0072432 -0.048775 0.024136 0.0012736 -0.0066033 -0.031367 0.0034774 0.020354 0.056997 -0.033735 0.03226 0.0081354 0.026038 -0.013919 0.0090191 0.052379 0.031419 0.018604 -0.041676 -0.017983 -0.030501 -0.010512 0.030196 0.0016773 0.013207 0.010173 -0.008536 -0.036768 0.014333 -0.016956 -0.023504 -0.033885 -0.0020857 0.044487 -0.013522 -0.017113 0.042181 0.058178 0.018594 0.04595 0.0015484 -0.029023 0.019897 -0.020971 0.040639 0.0021783 0.027663 -0.013906 0.0041686 -0.0071628 -0.062165 -0.017521 0.0078603 0.0075324 -0.0034541 -0.024811 0.024496 -0.011404 0.0085912 -0.030612 0.02898 -0.0066888 0.045435 0.026632 -0.0087325 0.021609 0.022648 -0.034339 -0.0022175 0.022239 0.025864 0.011308 0.032033 0.040649 0.00018242 0.028488 0.034486 -0.010772 -0.033399 -0.0072326 -0.020541 0.040004 -0.02915 0.0025296 0.015473 0.021346 -0.028045 -0.034464 0.033076 0.041003 -0.018286 -0.015289 0.055717 0.053273 -0.003977 0.01556 0.037132 0.019802 -0.0027425 0.037342 0.017536 -0.012266 -0.013808 0.039631 -0.030981 0.026762 -0.0081828 0.011471 -0.0038183 -0.029659 0.014147 0.0026065 0.041347 0.0091405 -0.0063667 0.012516 0.02676 -4.7588e-05 -0.0039065 0.035355 0.031663 -0.020593 0.018257 0.00019799 -0.032712 -0.028476 0.030423 -0.0021576 0.0080301 0.001685 0.0085433 -0.0050854 -0.028853 0.047794 -0.0040554 0.011243 0.0077497 -0.028231 0.0070486 0.022642 0.014117 -0.0065741 -0.00608 0.043987 -0.0094642 0.0084786 -0.050571 -0.039099 0.052866 -0.010347 -0.010585 -0.012114 -0.0011533 -0.017588 -0.0009927 -0.021238 -0.022876 -0.028444 0.036594 0.022417 -0.0083879 -0.035248 0.031846 -0.042762 -0.016394 -0.01879 -0.026415 0.014124 0.012183 0.034663 0.0098677 -0.036861 0.037047 -0.030451 0.044551 -0.029671 0.011509 -0.045104 -0.015393 -0.00057176 -0.0087043 0.021979 -0.020682 0.019147 -0.034407 -0.015828 -0.034114 -0.042219 -0.025575 0.00064907 -0.04496 -0.013682 -0.014221 -0.011059 0.085656 -0.040633 -0.0091777 -0.0041719 0.0076486 -0.00055896 -0.010958 0.019171 -0.01893 -0.017275
background 0.040775 0.025632 0.025315 0.034898 -0.019233 0.016961 0.074799 0.01648 0.03619 -0.013646 -0.022899 -0.034266 -0.027868 0.02011 -0.019849 -0.01036 0.0072755 -0.018266 -0.0018058 -0.047055 0.035469 -0.01716 0.0087958 0.016637 -0.012715 0.015692 -0.0070954 -0.0045994 -0.023794 0.020182 0.038544 0.0052956 -0.024755 -0.013472 -0.00050741 -0.0027806 0.026182 0.00025167 -0.016872 -0.0016491 0.065784 0.025442 0.044439 -0.012531 -0.052926 0.028286 0.0097449 0.0057068 -0.033112 -0.035111 -0.024732 0.0056089 0.046781 0.019945 0.0001269 0.032067 0.00015213 0.0012455 -0.034246 -0.036268 -0.0079368 0.024589 0.0029975 0.0029043 0.020838 -0.00060642 -0.032933 0.032814 -0.021781 0.032925 -0.020638 -0.022513 -0.010859 0.019643 -0.034871 0.017784 0.04698 0.027395 -0.016062 0.017804 -0.0043758 0.023456 -0.027932 0.041931 0.0061844 0.0029364 -0.010135 -0.012901 -0.016079 0.016695 -0.033479 -0.020906 -0.0031974 0.0017656 0.0071981 0.018502 0.0057525 -0.028366 -0.0071979 -0.017765 0.0050492 0.0097125 -0.030465 0.010186 0.0018945 -0.027515 0.0021329 0.0092702 -0.030362 -0.0083408 -0.020941 0.031371 -0.019095 0.026608 0.0024514 -0.040482 0.00051331 -0.0017455 0.02595 -0.03623 -0.012526 0.049201 -0.0062564 -0.0001523 0.0059149 0.04546 -0.060786 0.0065767 -0.012582 0.024008 -0.01275 -0.010907 -0.010866 0.020523 0.033773 -0.022472 0.028327 -0.02706 0.014813 0.052534 0.0070431 0.024895 0.021144 0.03005 0.030122 0.04941 -0.066871 0.026239 -0.013216 -0.029836 0.0037755 -0.039428 0.0062181 0.043742 0.0074796 -0.0047223 0.022025 -0.016176 0.021123 -0.0040271 -0.039205 0.028522 -0.020021 -0.012124 0.029903 0.025688 -0.056148 -0.034156 -0.01579 0.01021 0.027863 -0.039743 0.022771 -0.0070612 -0.011302 -0.022514 0.018336 0.0084698 0.0066432 -0.031209 0.081427 0.0048119 -0.014489 -0.026534 0.011939 0.027899 -0.0032251 -0.0083567 0.047479 0.0048244 0.03662 -0.011839 0.057206 0.022405 -0.025253 0.021703 -0.028927 -0.068898 -0.065727 0.014815 -0.011784 0.0074516 0.07344 0.01726 -0.029108 -0.023342 -0.0052408 0.0054815 -0.027635 0.047785 -0.011091 -0.017494 0.033296 -0.045555 0.019279 0.063902 0.022943 -0.029013 -0.026394 0.026825 0.049394 0.0044146 -0.0071809 0.017873 0.035485 -0.018858 -0.031577 -0.001889 0.0098407 0.05092 -0.0099982 0.020828 0.02572 0.0057451 -0.010353 0.0067072 -0.015284 0.01307 -0.0048447 0.020339 -0.016198 0.02112 -0.039208 -0.042871 0.024505 -0.010529 -0.023557 0.042076 0.0090085 0.013393 0.031371 0.0081482 -0.0042947 -0.069071 -0.001219 0.026897 -0.0080654 0.023199 0.027686 -0.029697 0.0055983 -0.00343 -0.037963 0.0088985 -0.0074127 0.040419 0.022244 0.0076438 -0.033796 -0.0075543 0.040218 0.029168 -0.0038226 -0.014592 0.0013792 0.0039968 0.015364 0.015395 -0.0077183 0.007382 0.075205 0.025058 -0.029353 -0.048279 -0.0098456 0.055675 -0.020866 0.0070781 0.0024539 -0.0071466 0.041934 -0.023772 0.0051814 0.0023337 -0.018305 -0.0068563 -0.0045802 0.037494 -0.013235 -0.0019468
lorem -0.13889 -0.045942 -0.27031 0.079587 0.18098 0.057517 -0.01647 0.0073541 0.075236 -0.16816 -0.1382 -0.060091 0.13496 0.067059 0.19057 0.032711 0.016015 -0.038194 -0.076133 0.025473 -0.10347 -0.11765 0.20117 -0.13301 0.043559 -0.053478 -0.069433 0.23446 -0.20745 0.26827 -0.11713 0.0058202 -0.14262 0.029986 -0.005969 -0.014197 0.071499 -0.039751 -0.0027116 -0.051426 0.22661 -0.13391 0.1179 0.16482 -0.024528 0.071539 -0.0098327 -0.13234 0.077391 0.035085 -0.023293 -0.075921 0.2844 0.077694 -0.049075 0.043178 -0.066251 0.053974 -0.19563 -0.28895 -0.027804 -0.11744 0.20069 -0.0015985 -0.14656 0.1343 0.096382 0.1565 -0.066022 0.10508 0.15072 -0.09897 0.035661 0.017477 -0.12047 0.13843 0.0081451 0.14579 0.14787 -0.045587 0.083214 -0.10687 0.12077 -0.15307 -0.14614 0.14146 0.0095978 -0.033691 -0.04469 -0.08618 0.0745 -0.1318 0.26269 -0.027431 0.29063 -0.024623 -0.03469 0.10926 0.10599 0.13041 -0.13273 -0.076327 0.16017 0.089558 0.02399 -0.072758 -0.064324 -0.083139 -0.21253 0.0038072 0.10635 0.054119 -0.074146 0.020609 0.21919 -0.22701 -0.0021663 -0.26934 -0.087854 -0.12288 0.10953 0.027487 0.12717 -0.12412 -0.047056 -0.074066 0.048376 -0.0053791 0.0056141 -0.19173 0.010157 -0.15358 -0.054172 -0.038359 0.077249 0.093279 0.077024 0.069172 0.019099 0.10803 -0.22731 0.12457 -0.069862 -0.11946 -0.0081435 0.094939 0.021195 -0.0069736 0.27521 0.071569 0.057128 -0.16517 -0.048416 0.011335 -0.028959 -0.096364 -0.21174 -0.097552 0.14857 0.12431 -0.025799 -0.011545 -0.16297 -0.090003 0.088705 -0.0090918 0.064001 0.026555 -0.12043 0.07857 0.075225 0.1168 -0.034481 -0.066002 0.056521 -0.072911 0.15158 0.19271 -0.060764 -0.056209 -0.051991 -0.0038711 -0.12308 0.012642 -0.08379 0.040154 0.14287 0.055876 -0.11065 -0.12293 0.089608 -0.082567 -0.010409 0.094545 0.029356 -0.10125 0.036889 0.10278 -0.20196 0.11801 -0.0057212 0.13457 -0.17804 -0.021136 -0.16742 0.14998 0.0030234 -0.020868 0.14539 0.0024894 -0.071581 -0.099311 -0.027265 -0.03482 0.028111 0.10722 0.061505 0.012704 0.054767 0.052166 -0.16512 -0.066484 0.087199 -0.035844 -0.077006 0.10733 0.15319 0.07178 -0.15322 0.12247 0.17325 0.066127 0.001052 0.18735 0.14283 -0.043059 -0.039655 0.042311 -0.15229 0.13706 0.057967 -0.13078 0.18297 -0.072569 0.32025 0.0037336 -0.07429 0.085201 -0.036705 0.026258 -0.17094 -0.058332 0.030919 0.19783 -0.24821 0.12668 0.04818 -0.021095 0.12941 0.067717 0.0080958 -0.040883 0.11004 -0.10587 -0.0047994 -0.085357 -0.014401 -0.051078 0.13386 0.21357 -0.15893 -0.083489 -0.11636 -0.12471 0.023884 0.1097 0.034031 -0.077384 -0.11397 0.12805 0.018829 0.17672 0.037601 0.2126 -0.11778 0.12762 -0.15203 0.11476 0.0029178 -0.032042 -0.00053657 0.0055329 -0.017791 -0.010317 -0.1166 0.044866 -0.23217 0.18264 -0.10434 0.1032
ipsum 0.0019598 -0.13789 -0.18126 0.1138 0.05093 -0.01572 -0.031724 0.12875 -0.081743 -0.12585 -0.089543 -0.05434 -0.058637 0.10993 0.063622 -0.061378 0.11634 -0.063654 -0.054885 0.16871 -0.070974 0.029579 0.097625 -0.11951 0.030317 -0.037498 0.10042 0.15449 -0.35798 0.313 0.050402 0.039135 -0.18341 -0.04214 0.074586 -0.021497 -0.088486 0.087695 -0.10811 0.0070159 0.15445 0.011891 0.12415 0.056879 -0.054051 0.04046 0.089106 0.023891 0.011693 -0.064845 0.031433 0.003402 0.17861 -0.066486 -0.010103 0.018279 -0.094751 0.12166 0.027842 -0.070305 -0.016225 -0.051984 0.13692 0.0094696 -0.13803 0.13118 0.14201 0.060761 -0.091923 0.17622 0.29427 -0.029485 -0.026607 0.098715 -0.28538 0.047644 -0.011969 0.1838 -0.08979 -0.044881 0.10407 -0.13523 0.10955 0.095482 -0.060482 0.15357 -0.11012 0.11996 -0.13991 -0.071093 -0.029699 -0.077393 0.02562 -0.051595 -0.12259 -0.12004 0.071549 0.093491 0.021301 0.1027 -0.041158 -0.14634 0.016417 -0.01676 -0.061157 -0.0723 -0.027088 0.027111 0.025732 -0.14762 -0.0054565 0.05131 -0.005513 0.018256 0.26971 -0.11681 0.019981 -0.23729 -0.12914 -0.18559 -0.10656 0.11476 0.081033 -0.058431 -0.16945 -0.125 0.059985 -0.076159 0.013904 0.030854 0.13658 0.022721 0.1259 0.076933 0.080318 -0.027342 0.039209 -0.030872 0.16545 0.21117 -0.12159 -0.043237 -0.055312 0.028687 -0.18821 0.034811 -0.37645 -0.070308 0.25482 0.08159 -0.038216 -0.020049 -0.097413 -0.056164 -0.052471 -0.084475 -0.003429 -0.15371 0.13675 0.11876 0.12255 -0.14133 -0.1006 -0.15549 0.074573 0.13561 0.11255 0.083063 -0.13241 -0.01126 -0.043299 0.073846 -0.041545 -0.029751 0.18983 -0.020802 0.11941 0.11281 -0.17529 -0.12183 -0.0024209 0.091688 -0.10646 -0.17388 0.11725 0.0096459 0.12073 -0.04389 -0.033486 -0.043809 0.070805 -0.096852 0.086461 0.13077 -0.062307 0.024352 -0.0098439 0.011375 0.0052258 0.093212 -0.15557 -0.094498 -0.12454 -0.1372 -0.11255 0.030426 0.0080056 -0.13613 0.026791 -0.063576 -0.042625 0.028109 -0.018699 -0.0018581 -0.029264 0.10519 -0.016653 -0.052211 -0.051584 -0.13746 -0.02908 -0.011299 -0.10156 -0.025378 -0.14642 0.082192 0.19862 0.18985 0.074392 0.031518 0.16518 0.13876 0.059953 0.087013 -0.057803 0.012144 0.066787 0.01388 -0.28108 0.0068021 -0.011793 -0.16905 0.179 -0.08255 0.14812 0.1055 -0.21021 0.018414 0.13033 -0.031599 -0.22895 -0.043936 0.0064912 0.093634 -0.10291 0.099384 0.086296 0.004301 0.18691 0.099435 0.054778 -0.065532 0.050329 -0.06103 -0.11267 -0.094617 -0.068453 -0.21784 0.13921 0.10652 -0.038067 0.022696 -0.01144 -0.093774 0.08655 0.25083 -0.11805 0.10522 -0.066556 0.046624 0.12323 0.26079 -0.068074 0.11413 0.040716 -0.00050703 -0.087028 0.065364 -0.089052 -0.022749 0.12087 -0.13449 -0.059236 -0.00060226 -0.079679 0.087391 -0.17286 0.073319 -0.14866 0.078382
sit 0.032893 0.067419 -0.033334 0.14225 -0.1963 -0.048592 0.18061 -0.032587 0.05528 -0.034118 -0.1596 -0.038261 -0.035288 0.084478 -0.010453 0.13465 0.066158 -0.0027456 -0.15877 0.14784 0.17051 0.055611 0.17332 -0.11888 -0.14523 -0.15374 -0.24598 0.0027434 0.085823 0.1232 -0.13264 0.025833 -0.1027 0.080924 0.046324 -0.090362 -0.17639 0.3033 -0.31045 -0.1012 0.09306 -0.04339 0.093676 0.27846 0.035761 0.26054 -0.23706 0.031333 0.066625 -0.010096 0.062606 -0.00055575 0.13392 -0.022951 -0.18798 0.084924 -0.060263 0.13184 -0.20107 -0.16966 0.36457 0.062628 0.25749 0.025653 -0.063151 -0.010854 -0.099974 -0.12511 0.014549 -0.00067 -0.10803 0.14529 0.071482 0.059065 -0.15672 0.0054364 -0.044834 0.14292 -0.12875 -0.26737 0.015137 -0.05231 -0.18135 -0.0028253 0.13141 -0.076366 0.016285 0.29396 -0.0036425 -0.11176 -0.0045095 -0.078138 0.18533 0.070405 -0.091333 -0.014191 0.083502 0.0093481 0.0046503 0.15343 0.015617 0.045833 0.082683 -0.16837 -0.034995 0.08187 0.11396 -0.066805 0.043683 0.098751 -0.050679 0.031903 0.099068 0.035255 0.20718 0.021776 -0.15915 0.062467 -0.021761 -0.00466 -0.094278 -0.039676 -0.059249 0.04017 0.036262 0.1251 -0.011971 0.074535 -0.022001 -0.12869 -0.13156 0.087442 -0.016062 0.038278 0.075875 -0.15881 -0.061892 0.18941 -0.13646 0.11301 -0.10582 -0.088512 0.13834 0.089746 0.12807 0.33614 -0.25352 -0.039791 0.016414 -0.11871 -0.13424 0.0013379 0.097622 0.012764 -0.13283 0.23703 0.1372 0.041383 0.016912 -0.13056 -0.03004 -0.044442 -0.13598 -0.027904 0.031892 -0.18563 -0.043971 0.013227 -0.08996 0.10961 -0.010394 -0.0050535 -0.062119 0.051293 0.07638 -0.049251 -0.14791 -0.035187 0.086849 -0.22392 0.00026119 0.033585 0.099137 -0.055439 0.035601 0.040721 -0.046543 -0.023323 0.18691 -0.24322 -0.06275 0.045252 0.12513 0.080596 -0.034842 -0.0032192 -0.041716 0.03783 0.014068 0.06491 0.057252 0.16989 0.10921 -0.17529 0.026822 0.19876 0.039062 -0.21319 0.206 0.10619 0.088666 -0.027026 0.073836 0.0054389 -0.081268 -0.1825 0.11706 -0.083817 0.026473 -0.022952 0.0045965 0.25659 0.17005 0.1673 0.046783 0.11597 0.11955 -0.0019649 -0.11456 -0.10754 -0.1409 -0.02413 -0.3032 0.077675 0.011979 0.14975 0.14111 0.070876 -0.24066 0.12669 -0.14637 0.046777 0.05489 -0.23756 0.34999 -0.029021 -0.02202 0.083181 0.044425 0.0059553 -0.13443 0.037939 -0.014646 -0.13813 -0.080807 0.12703 -0.080963 0.12092 -0.13967 0.018612 0.0071528 0.078257 -0.026129 -0.15276 -0.021051 0.054999 0.10268 -0.079132 -0.056797 -0.036441 -0.030977 0.086525 -0.21706 0.11487 0.032003 -0.21546 0.20087 0.17309 0.027341 0.0086 -0.014633 0.1967 -0.19261 -0.094503 0.02445 -0.05228 0.10792 -0.087106 -0.045204 0.021155 0.18063 -0.0032846 -0.16885 -0.10828 -0.030071 0.047345 -0.019649 0.010373 -0.045651 -0.05676
amet 0.14326 -0.066255 -0.1951 0.043182 0.10098 0.12093 0.19123 -0.053718 -0.13 0.071587 -0.2093 0.093189 0.0027833 0.1009 -0.010528 -0.13943 0.015014 0.014369 -0.16297 -0.099717 0.14507 0.03267 0.3555 -0.05036 0.00047435 -0.094806 -0.2732 0.26093 -0.25848 0.50279 -0.24109 0.15476 0.024248 0.16905 0.12379 -0.16251 -0.21885 0.36738 -0.19051 -0.017675 0.074263 -0.058854 0.29859 0.092803 -0.15404 0.064088 -0.14314 0.16603 0.065985 0.042989 0.044529 -0.066025 0.084778 -0.089495 -0.013033 -0.026651 0.052031 0.017178 -0.048277 0.032216 0.27269 -0.14098 0.29739 -0.049566 0.0014731 0.17676 0.10818 0.04417 -0.03653 0.17138 0.093595 -0.0051706 0.014186 0.0090058 -0.0092076 -0.13419 -0.15268 -0.011723 0.074575 0.071501 -0.010951 0.16399 0.16532 -0.078691 0.14756 -0.085489 -0.015101 0.11284 -0.073325 -0.0016313 0.029834 -0.032086 -0.041041 -0.0055571 -0.31346 -0.043379 0.23934 0.085718 0.092837 0.10421 0.020408 -0.11098 -0.058907 0.025729 0.11577 0.05792 -0.031109 -0.11019 0.12585 -0.024275 -0.035736 -0.0087411 -0.043289 0.18123 0.073525 -0.10811 0.1081 -0.097666 -0.06952 -0.0253 -0.060542 0.084983 0.064759 0.0022599 0.064347 -0.15073 -0.22364 0.16702 -0.0090245 -0.14813 0.1281 -0.022525 -0.0048574 -0.19035 0.11753 0.070466 0.036049 0.036639 -0.15507 0.068825 -0.253 -0.11117 -0.17481 -0.19727 -0.026647 0.1575 -0.37507 -0.11433 0.034495 -0.10903 0.067584 -0.17202 0.060202 -0.061766 -0.089382 0.11936 0.25222 -0.011441 0.12932 -0.088133 -0.063246 -0.027769 -0.12358 -0.009493 0.026488 -0.36545 0.080228 -0.14805 -0.13931 -0.052401 -0.025772 -0.0034593 -0.15327 -0.0058222 -0.029739 -0.35513 0.055099 -0.016184 -0.15454 -0.04743 0.071345 0.089179 -0.02422 -0.1376 0.095057 -0.20336 -0.10044 0.045338 -0.0050646 -0.21199 0.024597 -0.10505 -0.02791 0.005893 0.22702 0.054747 -0.098275 0.048942 0.1321 0.076514 -0.083048 0.078118 0.1397 -0.079284 -0.12958 0.18053 0.21456 -0.15935 0.13837 -0.017748 0.054138 0.090845 0.013586 0.064816 0.078173 -0.1072 0.003493 0.31646 0.074909 -0.026535 0.06121 0.06805 0.006561 0.12752 -0.10571 0.10808 0.0063608 0.1495 0.074282 0.15128 0.085071 0.029881 0.094539 0.19862 0.076766 0.13591 0.038773 0.075345 -0.44737 -0.017206 -0.06108 -0.18735 0.35662 -0.10402 0.31302 0.048321 -0.43082 0.16305 0.019765 0.080614 -0.33138 0.0062635 -0.029056 -0.08943 -0.23976 0.077966 0.31772 0.048443 -0.072975 0.15381 0.14944 -0.004607 0.14548 -0.095356 0.12937 -0.13796 -0.14265 -0.054965 -0.24135 0.11003 -0.14138 -0.12969 0.0071347 -0.035335 0.056284 0.21926 -0.20057 0.038418 0.033617 -0.034658 -0.033863 0.15452 0.11868 0.12713 -0.00078184 0.14574 0.069271 0.05021 -0.12116 -0.069995 0.16523 0.024377 -0.08884 -0.03065 0.10005 0.042699 -0.059892 0.28476 -0.17757 0.10558
consectetuer -0.021838 -0.0026667 -0.018797 0.051774 -0.01341 -0.046706 0.011215 0.034218 -0.011742 -0.024095 0.0088371 -0.038835 0.012635 0.020373 0.015221 -0.035893 -0.022925 -0.030705 -0.037314 0.04848 0.01857 0.0011107 0.071208 -0.011599 0.042041 0.044543 -0.027778 0.054454 -0.05871 0.11569 -0.042156 -0.0097585 -0.025806 0.0078716 0.054979 -0.039895 -0.085512 -0.0061259 -0.0092063 0.014201 0.076893 0.014065 0.031945 0.030912 -0.012811 0.0072645 -0.0038871 0.013594 -0.0084674 0.0085226 0.0039072 -0.035084 0.055647 -0.01621 0.019287 -0.019114 -0.0078535 -0.021139 0.01121 -0.0092378 0.017737 0.0021838 0.047715 -0.013045 0.0055843 0.051443 0.04891 0.030949 -0.037029 0.021326 0.049244 0.036541 -0.024502 -0.034642 -0.020714 -0.022355 0.031788 -0.014405 0.0018344 0.01135 -0.041085 0.024664 0.010518 -0.017261 -0.049687 0.013324 0.0037229 -0.014794 0.027672 -0.039314 0.036663 -0.029615 0.0018394 -0.010494 0.015042 0.023495 0.079317 0.0058536 -0.032161 0.013658 -0.022814 -0.036317 -0.017359 -0.012042 0.018782 0.0306 0.0048325 -0.028667 0.023036 -0.049577 -0.023682 -0.068803 -0.074952 0.04876 0.033644 -0.025737 0.051414 -0.010681 -0.015553 0.013249 -0.0012027 0.014782 0.03737 0.013089 -0.050897 -0.049374 0.0094145 0.021656 -0.022095 -0.043113 0.031655 0.0036091 -0.0063651 -0.036079 0.043849 0.017982 0.030314 0.014877 0.009944 -0.01232 -0.048417 -0.059547 -0.027082 -0.0096612 0.0085132 0.0049068 -0.030814 -0.013552 0.0041491 0.017592 0.023382 -0.0085501 0.010653 -0.017995 -0.061268 0.012644 -0.028915 0.027019 -0.0028815 -0.0099039 -0.013217 -0.01063 -0.019705 -0.025685 0.018837 -0.058782 0.01308 -0.015161 -0.0037413 0.0088207 -0.01974 0.033459 -0.013773 -0.017666 -0.021733 -0.080069 0.044428 0.00022215 -0.02692 -0.0022281 0.017223 -0.028597 -0.016246 -0.03956 -0.042407 -0.023276 0.042042 0.028522 -0.017009 -0.0088919 0.028189 -0.058156 -0.02596 -0.0041118 -0.036722 -3.8552e-05 -0.015152 0.0024383 0.032507 0.060123 -0.0023269 -0.0091332 -0.027298 0.018757 -0.0025072 -0.021255 0.0119 -0.001794 0.0049711 -0.055256 -0.011227 -0.0062983 0.017374 0.0013499 0.014181 0.030444 0.011617 0.028922 0.0076424 -0.0068044 -0.0005496 -0.02981 0.0044996 0.075042 -0.037911 0.0037183 0.0099303 0.046098 0.016343 0.037528 0.021601 0.0025829 0.012671 0.0066955 -0.01435 0.052915 0.0044187 0.029066 -0.049392 -0.013406 -0.00678 -0.055015 0.045602 -0.053716 0.088285 0.0050535 -0.031486 0.015971 0.018688 0.00071382 -0.11795 0.012789 -0.051291 -0.0060642 -0.051784 0.0024157 0.031114 0.04051 0.028638 -0.0010389 0.035692 0.044014 0.054994 -0.013771 -0.028035 -0.048721 -0.0023556 0.020996 -0.016859 0.0013703 -0.031569 0.012618 -0.040787 -0.0117 0.031739 0.023968 -0.058476 0.0073056 -0.02572 0.02295 -0.0069428 -0.015172 -0.0013138 0.0259 0.017105 0.0070355 0.028883 0.052124 0.0051534 -0.0047591 0.031867 0.0075304 0.032317 0.028254 -0.011494 -0.0030046 -0.0071736 0.066472 0.0036542 -0.027441
adipiscing -0.0023614 0.0047014 -0.057575 0.079384 -0.0029705 -0.044913 0.017926 -0.0047637 -0.011044 0.017435 0.039469 0.058839 -0.055004 -0.016062 -0.0030375 -0.017722 0.039162 -0.056615 0.0042554 0.027244 0.050014 0.046948 0.036928 0.046765 0.010435 0.014364 -0.044881 0.10024 -0.035945 0.18566 -0.10212 0.059963 0.0050234 0.0349 0.022602 -0.048659 0.051183 0.035436 -0.0058977 -0.044588 0.03382 -0.0089786 0.1187 0.072397 -0.024964 -0.04289 -0.058877 0.02515 5.9166e-05 -0.0091683 0.010105 -0.0057522 0.033644 -0.0026467 0.035923 -0.017422 0.043647 -0.015798 0.019414 0.016196 0.086664 -0.10076 0.10611 -0.042386 0.023937 -0.0070395 0.047795 0.0068948 -0.025491 0.048975 0.037397 -0.00053671 0.019639 -0.053049 0.019544 -0.02042 0.0094969 -0.024381 0.027153 0.047582 -0.063142 0.10105 0.011242 -0.067909 -0.030571 0.059841 -0.018394 0.05085 -0.00019571 -0.047992 0.049806 -0.042922 -0.043004 -0.043481 -0.010433 -0.0044248 0.041911 -0.019308 0.0080777 0.016138 -0.0049878 -0.080908 -0.00048751 -0.012785 0.028348 0.05325 -0.003041 -0.06309 -0.052959 -0.044211 -0.01593 -0.054876 -0.042036 -0.011895 0.059557 -0.028129 0.078237 -0.045047 -0.024596 -0.015237 -0.029073 0.0043616 0.02397 0.021811 0.0072965 -0.042712 0.013184 -0.017444 -0.030696 -0.025066 -0.020059 0.010892 -0.0079195 -0.032605 0.010518 0.057955 0.050832 0.039683 0.014657 0.027874 -0.050381 -0.023246 -0.027044 -0.0037468 -0.03257 0.0070823 -0.11955 0.0094659 0.01812 -0.061667 0.0075805 -0.036831 0.0056687 -0.038935 0.028369 0.011971 -0.027178 -0.0067921 -0.0058517 -0.072099 0.015526 -0.0081319 -0.048556 -0.01193 -0.031591 -0.041834 0.0094389 -0.029483 -0.048073 0.022467 -0.064643 0.0435 -0.076116 -0.0056926 0.025474 -0.041071 0.02823 0.02821 -0.0014584 0.053373 -0.037236 -0.031227 -0.037587 -0.08455 -0.00050209 -0.056654 0.037117 0.066204 -0.035411 0.021247 0.024957 -0.084606 -0.029121 0.037552 0.0044024 0.037431 -0.044681 0.027855 0.0010914 0.0073833 0.053163 0.011473 -0.096323 -0.014296 -0.017478 0.010894 -0.00074684 0.015285 0.0084051 -0.058416 -0.046238 0.0039361 0.04383 0.0035798 -0.052642 0.015114 0.016737 0.059699 0.03408 0.014498 0.024907 0.032862 0.051436 0.024499 -0.028786 0.085211 -0.029754 0.057133 0.053753 0.099339 -0.016861 -0.028284 0.016795 0.028338 -0.039112 0.0049742 -0.014204 -0.018638 -0.060873 0.05161 -0.041304 -0.072312 0.10784 0.022303 0.13043 -0.011162 -0.045329 0.015317 0.02473 0.0033946 -0.091831 0.053556 -0.0029225 0.044796 -0.075371 0.00585 0.0093785 0.046475 0.05607 0.026783 -0.02418 0.055061 0.021113 -0.02066 0.011404 -0.086882 -0.031333 -0.018968 -0.011309 -0.02537 -0.066517 0.040051 -0.021868 0.033417 0.056391 0.063088 -0.035417 0.023017 0.029913 -0.022043 -0.00099025 -0.041835 0.022327 0.048187 -0.026286 0.00098895 0.046497 0.025 -0.040209 -0.013676 0.0080982 0.034341 0.043104 0.042047 0.014979 0.040195 -0.052388 0.072674 -0.037254 -0.020757
elit 0.068802 -0.048819 -0.15434 0.033422 -0.010901 0.16622 0.041846 0.011521 -0.12288 0.10355 0.11594 0.024911 -0.17896 -0.05636 -0.082075 -0.10655 0.003547 -0.14522 -0.12231 0.016965 0.072558 -0.18362 0.0010422 0.096651 -0.032329 -0.11135 -0.086474 0.13751 -0.141 0.23429 -0.0044903 0.098425 0.075891 0.11805 0.14955 0.00094603 -0.031211 -0.097185 -0.025311 0.026446 0.054818 0.02117 0.16566 -0.031936 -0.098135 -0.043303 -0.032058 0.0027902 0.046142 0.10983 0.022647 0.17238 0.25181 0.0099968 0.17643 -0.080154 0.076438 0.063838 -0.043229 0.032422 0.15684 -0.07425 0.30891 0.020909 -0.052604 0.037313 -0.073364 0.10346 -0.12324 0.037883 0.041115 -0.036266 -0.10556 0.048769 0.0080698 0.071274 0.094014 -0.16235 0.061879 0.067116 0.010453 0.13246 0.089429 -0.11778 0.00018405 0.018661 -0.030637 0.12069 -0.028618 0.027813 0.036132 -0.088694 -0.083491 0.063869 -0.078165 0.0062803 0.03681 0.058696 -0.079474 -0.044226 0.029413 -0.17432 -0.043768 0.016719 0.1038 0.066947 0.10002 -0.066611 0.15211 0.075632 0.089387 0.022178 -0.079693 0.055546 0.080656 -0.025675 -0.24589 -0.16671 -0.15741 -0.10208 -0.017644 -0.048052 0.12584 0.19027 0.043478 0.094546 -0.019222 0.10548 -0.087158 0.026029 0.060142 -0.036833 0.098276 -0.078254 -0.025113 0.0098444 0.011247 -0.012248 -0.11835 0.078829 -0.070273 -0.051777 0.0027054 0.069684 -0.10033 0.11387 -0.24714 -0.096586 -0.038359 -0.080745 0.079076 -0.077378 0.067071 -0.01837 -0.12937 -0.076151 0.094251 -0.087412 0.0013526 -0.046475 -0.036666 -0.038829 0.030489 -0.14233 0.25457 -0.22365 0.085426 -0.11839 -0.088885 0.018968 -0.23458 0.10307 -0.10228 -0.0061709 0.05641 -0.067882 0.082558 0.05035 -0.016573 -0.040358 -0.043111 -0.043636 -0.013648 -0.17519 0.025915 -0.18389 0.13521 0.12895 -0.048968 -0.011631 0.18248 0.020905 0.052901 0.046245 0.063813 -0.006561 -0.24925 0.14378 0.16317 -0.031715 0.050801 0.033643 -0.29648 -0.041992 -0.090084 0.062981 -0.017687 -0.088153 -0.092075 -0.11378 -0.12305 0.023088 -0.040903 0.088947 -0.23876 0.031744 0.04901 0.049594 0.060942 -0.069569 -0.085471 0.093725 0.058618 0.0029054 -0.12533 0.09518 0.012601 0.21582 0.11935 0.16286 -0.12546 0.040857 0.051689 0.15328 0.085279 0.045614 -0.1871 -0.11051 -0.11719 0.01286 -0.058704 -0.13783 0.10733 -0.050725 0.20102 0.024547 -0.13736 0.016947 -0.024155 -0.021374 -0.16497 -0.0042172 -0.15731 -0.026766 -0.013449 -0.015769 0.031678 0.089934 0.062892 -0.041184 -0.035419 0.020546 0.089622 -0.05458 -0.056418 -0.12627 -0.10044 -0.01966 -0.051696 -0.04244 -0.077328 -0.025648 -0.024765 0.023536 0.1356 0.033328 -0.0087134 0.03413 0.037346 -0.065083 0.0082085 -0.01138 0.033395 0.19482 -0.055313 0.045029 0.069961 0.030356 0.10157 0.077635 -0.017806 -0.0072546 -0.017671 0.10587 -0.06549 0.065742 -0.13593 0.1095 -0.15231 -0.064225
commodo 0.0012361 -0.13807 -0.092239 -0.047913 0.026286 0.028861 0.060843 0.023819 0.048034 -0.026934 0.076834 0.0062046 0.018077 -0.051004 -0.027416 -0.041765 -0.00085695 0.037463 -0.022453 0.038256 0.0025731 0.087748 0.056385 0.015139 0.06588 0.12552 -0.044447 0.086241 -0.05491 0.22484 -0.10541 -0.0049509 -0.013992 0.036766 0.068389 0.0040423 -0.03293 -0.033573 0.040585 0.0069733 0.14421 0.0096364 0.052101 0.056945 -0.0080346 0.061516 0.00028545 0.031752 -0.012881 0.064512 0.071588 0.019269 0.10478 0.013988 -0.042409 -0.00087333 0.094986 0.029341 -0.030733 0.0010019 0.054023 -0.027749 0.17668 -0.051934 -0.012597 0.13914 0.020669 0.059915 -0.067297 -0.00056612 0.07736 -0.00024139 -0.060306 -0.054582 0.0014815 0.0121 -0.080708 0.020947 -0.012981 0.11368 -0.087034 0.078892 0.073122 -0.015519 0.012935 0.047382 -0.034438 0.067073 -0.04909 0.0080143 0.048161 -0.030399 -0.032745 0.0079775 -0.062054 -0.077772 -0.0029194 -0.0007414 0.014036 -0.052779 -0.059508 -0.072295 0.018282 0.041696 0.044758 0.064576 -0.044233 0.058758 0.053798 -0.041146 0.024682 0.023561 0.0047893 -0.03608 0.03325 -0.097357 0.031279 -0.066057 0.018012 -0.046958 -0.027564 0.023052 -0.00042195 -0.006963 -0.090036 -0.02692 0.055444 -0.040443 -0.0029827 -0.067166 0.11953 -0.029848 0.11774 -0.12991 -0.040062 0.01897 -0.0073357 0.12767 0.029756 0.034136 -0.010321 -0.055724 0.0011323 -0.0011699 -0.031559 0.0020674 -0.096842 -0.0094269 0.026166 -0.04291 0.021734 0.017833 0.010562 -0.083263 -0.015244 -0.028136 -0.002945 0.0057146 0.026661 0.020456 -0.0045837 0.062072 0.05915 -0.046408 0.054305 -0.061499 0.063944 -0.011408 -0.0088741 -0.026276 -0.02096 -0.051209 -0.11373 0.001289 0.059348 -0.078464 0.03144 -0.05245 -0.051226 -0.043433 -0.014572 -0.011607 -0.13859 -0.049339 -0.042438 0.0036192 0.098095 0.068163 -0.06865 -0.021807 0.0382 0.019199 -0.053547 0.0012037 0.04584 0.00036418 -0.031603 0.03475 0.076159 -0.012294 -0.076021 0.036964 -0.048533 -0.0093946 -0.046632 -0.036443 -0.013019 -0.039732 0.072826 -0.030827 -0.091502 0.051898 -0.020347 0.036347 0.060507 -0.034509 -0.019317 0.061294 0.022989 -0.028351 0.037058 0.023262 0.011849 0.020464 -0.14976 0.090632 0.025467 0.042925 0.046012 0.082767 0.032825 0.022425 0.0035623 0.023822 0.10074 0.095346 -0.016106 -0.0012118 -0.10385 -0.053829 -0.034195 0.021193 0.033111 -0.041805 0.2435 0.068348 -0.06678 0.012982 0.024804 -0.034697 -0.09607 0.021454 -0.044808 0.0024794 -0.092965 -0.048215 -0.0095705 0.13529 0.067171 -0.050888 0.0073206 -0.014966 -0.032596 -0.028621 -0.011615 -0.041465 -0.096424 0.010648 -0.044394 0.024014 -0.060955 -0.0051178 -0.025363 0.050872 0.031191 0.089899 -0.0028584 0.13145 0.003471 0.011325 0.01619 0.024075 -0.067376 0.11782 -0.045213 0.045257 -0.064572 -0.0018369 -0.00019958 -0.066387 0.040397 0.0011057 0.06823 0.062134 0.0045847 0.060062 0.013603 0.13773 -0.046721 0.019418
ligula 0.001525 0.0044062 -0.087427 0.0745 0.020762 -0.10967 0.083723 0.062218 -0.037565 -0.056865 0.035543 0.084715 -0.00071048 0.0031698 -0.03702 0.03212 -0.01763 -0.087571 -0.037016 -0.014303 -0.0032987 0.084592 0.10801 0.084304 0.031103 0.086648 -0.021759 0.029728 -0.12203 0.37781 -0.10063 -0.010472 0.086678 0.065016 0.022766 -0.070188 -0.026221 0.01065 -0.056528 -0.014949 0.14857 0.025402 0.018703 0.042999 0.058307 -0.0067148 -0.095757 0.058192 0.03272 0.1857 -0.062052 -0.063652 0.040968 0.030413 0.10379 0.012845 0.055428 -0.013441 -0.048618 -0.15138 0.070674 -0.024052 0.20489 -0.0046802 -0.12052 0.075949 -0.0022758 0.035157 -0.035446 0.0078419 0.045883 0.0065316 0.0067249 -0.02736 0.06693 0.10943 0.088053 -0.11958 -0.021579 0.03114 -0.056563 0.13647 -0.014857 -0.13211 0.040063 -0.10069 -0.062062 -0.00028036 -0.007089 -0.054567 0.072111 -0.039024 -0.12292 -0.082484 0.033255 -0.027792 0.0078484 -0.023496 0.060835 0.0017024 -0.068153 -0.027386 -0.02392 0.029946 0.059471 0.10718 -0.11868 -0.043573 0.022711 0.028527 0.042847 -0.075104 0.022976 0.031635 0.078294 -0.011772 0.057727 0.013121 -0.01167 -0.052758 0.051113 0.041915 0.031328 -0.10377 0.0049896 -0.086171 0.075965 0.065654 -0.069097 0.068197 0.08174 -0.0097977 0.1368 -0.014268 -0.062937 0.037377 -0.074543 0.024657 0.019046 -0.029552 0.065801 -0.02003 0.09338 -0.094866 -0.073541 0.011757 -0.15329 -0.057397 -0.0077138 0.10745 -0.016805 0.00040929 -0.063559 -0.12218 0.01983 -0.17115 -0.021651 -0.038883 0.019519 -0.13945 -0.03594 -0.16421 0.024293 -0.07725 0.011279 -0.073679 0.1139 -0.082473 0.022644 0.0089087 -0.07842 0.054065 -0.073976 -0.10396 0.018241 -0.11601 -0.087244 -0.036097 0.022448 0.107 0.032162 -1.3411e-05 -0.0048956 -0.10186 -0.04174 0.0113 0.11953 0.12293 -0.065905 0.0040028 0.03252 -0.24945 -0.028079 -0.010948 -0.12627 0.010813 -0.1115 0.046379 0.03646 -0.061926 0.12002 -0.024718 -0.061187 -0.040965 -0.11851 0.037774 -0.0081557 -0.063402 0.13018 -0.011485 -0.10533 0.080636 -0.0099289 0.072192 -0.11462 -0.016359 0.056899 0.065495 -0.0073096 0.036218 -0.033025 0.032905 0.03446 0.089486 -0.13283 0.039549 0.085156 0.16114 0.026991 0.15186 0.014145 -0.022509 0.019132 0.09784 0.0086801 -0.0056595 -0.0087181 -0.088164 -0.018401 0.055553 -0.039434 -0.078356 0.045381 -0.043835 0.14561 0.055742 -0.059935 0.0094511 -0.073509 0.060545 -0.21463 0.060602 0.037845 0.041489 -0.12117 0.021824 0.054731 -0.012519 0.02198 0.076846 -0.00064803 -0.039819 -0.035814 0.025433 0.0085005 -0.050983 -0.026034 0.031246 0.015893 0.028037 -0.15898 -0.083379 0.036622 0.02475 0.095554 0.10232 -0.050144 0.01811 0.056321 -0.040383 0.0064771 -0.038958 -0.0035446 0.10535 0.026135 0.092212 0.074622 0.12294 -0.024988 -0.24938 0.020391 0.02633 0.099072 0.16023 0.026246 0.01993 -0.017288 0.04645 -0.0188 -0.0072225
cum 0.37518 0.10935 -0.075679 0.20334 -0.037354 0.12161 0.041611 0.13317 -0.057032 0.045923 0.13608 -0.085492 0.003355 0.1473 0.0073213 0.1458 -0.3256 -0.17539 -0.049089 0.021958 -0.15724 0.0127 -0.011479 0.021526 -0.16185 0.032631 0.021601 0.059107 -0.054199 0.53828 0.14756 -0.10371 0.11815 0.1923 -0.094838 0.076476 0.017206 0.22282 -0.21177 0.004732 0.11879 -0.030399 0.15159 0.17093 -0.14801 0.098633 -0.10241 0.22799 -0.14167 0.32271 0.16719 -0.17319 -0.052806 0.29753 -0.070536 0.051188 -0.12753 -0.13263 -0.24448 -0.13023 0.21023 -0.24325 0.30917 -0.011239 -0.24621 0.04397 -0.018216 0.019248 -0.22165 -0.076898 0.076426 0.15926 -0.14539 -0.11685 0.028292 -0.13134 -0.32705 -0.08363 -0.093024 -0.13015 0.014044 -0.077038 0.12282 0.32054 0.069127 -0.05968 0.021771 0.17939 0.04876 -0.11862 0.056486 -0.08558 -0.15099 0.070385 0.10617 0.11537 -0.01264 0.39428 -0.11563 0.12613 0.036322 0.42648 -0.013469 -0.036551 -0.25472 0.098419 0.021525 -0.21254 -0.2377 -0.10751 -0.12413 -0.10776 0.13576 0.11618 0.38115 -0.052114 0.025786 0.0067374 -0.14698 -0.055009 0.11181 -0.073571 0.042973 -0.16338 0.26072 0.064596 -0.0034725 -0.025156 0.12258 -0.06026 -0.049837 0.34119 -0.1845 -0.14525 -0.014235 0.015849 0.12528 0.024378 0.23736 0.17023 -0.073722 -0.073342 0.033088 -0.19814 -0.11035 -0.10923 -0.20799 0.072837 0.14906 -0.10897 -0.091415 -0.026209 -0.01826 0.27515 -0.16141 0.14194 0.090226 0.11381 0.056891 0.053075 -0.05547 -0.32291 0.05826 -0.21286 0.18444 0.14281 0.022988 -0.21905 0.30282 -0.25785 -0.29598 0.034024 -0.21864 0.69399 0.049135 0.2046 -0.15495 -0.082001 -0.026834 0.12124 0.3454 -0.16049 -0.26154 -0.23616 -0.016219 -0.12237 0.21284 0.012684 0.13724 -0.0079185 -0.19091 -0.02044 -0.031092 -0.022094 -0.32833 0.10283 -0.17949 0.12599 -0.15394 0.15085 0.14628 0.046177 0.059003 0.1445 -0.23852 0.2631 -0.10251 0.11827 0.25527 -0.040934 -0.10904 0.12423 -0.011666 0.071769 -0.064901 0.14781 0.090854 -0.082406 0.15242 0.12049 -0.083572 0.0034759 -0.15817 -0.056429 0.03227 0.23944 0.078137 -0.095522 -0.13076 -0.098087 0.14166 0.35003 -0.0030713 -0.065844 -0.02776 -0.0066941 -0.08621 -0.33615 0.10724 -0.096022 0.08399 -0.007127 0.037796 -0.15582 0.34933 -0.0088111 -0.38524 0.042818 0.12235 0.16057 -0.22632 0.050704 -0.26979 0.55308 -0.16655 -0.14586 -0.13981 0.13741 0.058677 0.23957 0.3667 0.020791 -0.051284 0.13518 -0.089908 -0.11108 -0.024224 0.056945 -0.19417 -0.16638 -0.02767 0.097864 -0.089423 0.23172 0.056735 0.093657 -0.038101 0.12317 0.012923 -0.05618 0.18328 0.10656 -5.9582e-05 0.18281 -0.18523 0.35692 0.038233 -0.064485 0.059937 -0.22321 0.024116 -0.053035 -0.089501 -0.1197 0.049909 0.054922 0.12903 0.16048 -0.052554 -0.17979
sociis 0.065915 -0.013743 -0.056807 0.0049497 -0.012606 -0.0019651 0.075674 -0.030412 -0.049759 -0.078677 0.057015 0.011736 -0.028596 0.05114 0.03609 -0.022619 -0.087816 -0.052573 0.053274 -0.01899 -0.1035 0.057653 -0.029187 0.019182 0.12992 0.03895 -0.020766 0.031293 -0.16608 0.27932 0.022499 -0.04816 -0.0027135 0.076961 -0.15056 0.13897 -0.037414 0.086985 -0.034187 -0.035985 0.19971 -0.088334 0.030575 -0.010237 -0.013474 0.045665 -0.024337 0.016377 -0.034915 -0.020746 0.0042225 0.0037135 -0.019415 0.0204 -0.092833 -0.07303 -0.079584 -0.0061896 -0.02229 0.018306 0.13449 -0.033754 0.044367 0.02509 -0.15443 0.073299 -0.002493 -0.0058359 -0.077135 0.025158 0.1157 -0.043122 -0.0055117 -0.055417 -0.072704 0.016205 0.017775 -0.062405 -0.017489 0.0485 0.0018124 0.028766 0.066152 0.031681 -0.010988 0.022447 0.036153 0.093157 -0.0019228 -0.055643 0.057419 -0.075814 -0.06525 0.064816 0.00093516 0.032065 0.010882 0.061566 -0.014888 0.011876 -0.04666 -0.10039 -0.0067502 0.026081 -0.040258 0.094359 0.029735 -0.075285 0.099809 -0.11828 0.011939 -0.041075 -0.027393 0.00035551 0.0033008 0.031021 0.045816 -0.044642 0.028446 0.060056 -0.0091945 -0.070615 -0.0098885 0.0021368 -0.021647 -0.0066586 0.010926 -0.05071 -0.081217 0.12609 0.000551 -0.024406 0.037841 -0.021151 0.027103 0.13701 -0.037153 -0.06341 0.014692 0.071969 0.016627 0.077801 0.045571 -0.016552 -0.0093407 0.017761 -0.17874 -0.047869 0.1758 0.012556 0.0020457 0.044926 -0.072837 -0.0026906 -0.013503 -0.041705 0.077884 -0.07033 0.076781 0.066249 -0.057879 0.05793 0.016984 -0.10425 -0.12904 -0.068331 0.096957 -0.087501 0.016126 -0.07657 -0.18106 0.086711 0.02411 -0.041355 0.033827 -0.031395 -0.0056207 -0.022724 -0.23316 -0.013254 -0.072055 0.041421 0.016727 -0.15725 0.0040206 -0.00078964 0.1669 0.0014364 -0.0065237 0.11622 0.0392 -0.13582 0.017868 0.046743 0.048323 -0.02333 -0.033253 0.077313 0.044006 -0.0025719 -0.0049087 0.034114 -0.027553 -0.01883 -0.082909 -0.030112 0.095706 -0.016683 -0.051753 -0.054954 -0.10135 0.094301 -0.040251 0.049949 0.13529 -0.0028856 0.11289 0.055235 0.11027 0.031502 -0.050657 -0.14694 -0.04403 -0.018619 -0.11923 0.072815 0.096156 0.16838 0.0046945 0.078857 -0.014448 0.10226 0.057213 -0.11162 0.10462 0.037542 0.057443 0.054136 -0.14131 0.072171 0.052866 -0.096327 0.063632 -0.060378 0.1361 0.071334 -0.14504 0.088249 0.036144 0.056618 -0.23985 0.034528 0.10244 0.038108 0.064857 -0.0015148 -0.042685 0.062814 0.15261 0.065333 -0.0034617 0.013422 -0.0095981 -0.011324 0.011989 -0.0041842 -0.063653 0.096547 -0.13454 0.032977 -0.051582 -0.0068306 0.056624 0.046662 -0.016078 0.17627 -0.032953 0.025974 -0.0014625 -0.0016342 0.089974 0.019203 -0.038603 0.055302 -0.047968 0.012133 -0.027665 0.12364 -0.052832 0.035593 -0.0068351 0.0051503 0.07613 0.033862 0.046094 0.0069328 -0.049911 0.061725 -0.056646 -0.05134
natoque -0.010784 0.0093095 -0.0095995 0.10287 0.0067083 -0.068581 0.029221 -0.030384 -0.028549 -0.0082233 -0.006057 0.050353 0.015919 -0.01544 -0.0082703 0.0090647 0.013973 -0.0063432 -0.027092 0.026883 0.048791 -0.0060916 0.0069296 0.021757 0.05399 0.0048511 0.019878 -0.0031708 -0.073694 -0.033973 -0.056612 -0.043165 0.0053914 0.03522 0.039691 0.0022936 -0.090514 0.041921 -0.025624 0.042555 0.024668 -0.0065532 -0.010399 0.02166 -0.01583 0.069808 -0.033634 0.013512 0.025801 0.039266 -0.0056834 -0.07333 0.045729 -0.027351 0.05013 0.03031 0.044667 -0.060641 -0.055822 0.038592 0.018737 -0.057727 -0.0094263 0.032971 0.013416 -0.019013 0.051253 0.02093 0.0022079 0.029993 0.027477 -0.01186 -0.013135 -0.021415 -0.038678 -0.0098278 -0.0168 0.017069 -0.088413 0.03141 -0.05773 0.027746 0.022756 -0.013612 -0.03918 0.012123 -0.04842 0.010531 -0.015007 0.011511 0.058993 0.054711 -0.039103 0.028842 0.072151 0.052534 0.053293 -0.033861 0.00082952 -0.053786 -0.020709 -0.035936 0.011782 0.007526 0.054614 -0.026665 0.016231 0.0010127 -0.041945 0.053415 -0.042826 0.010886 -0.02737 0.02582 -0.031399 0.0063129 -0.052749 -0.025866 0.01447 0.039238 -0.036638 -0.050467 -0.0077496 0.0038868 -0.017262 0.028674 -0.012922 0.023506 -0.027614 0.011419 0.032585 0.017035 0.033799 0.024587 0.042028 0.038177 0.075642 0.01205 -0.029342 -0.0099851 0.045077 0.019685 0.021623 0.00535 0.0064401 -0.020068 -0.080525 0.00171 0.047626 -0.038532 0.04056 -0.0017032 -0.078623 -0.013744 0.045587 0.0099864 0.0086223 -0.057186 -0.057539 -0.063908 -0.036897 -0.0026134 -0.076726 -0.010963 0.0088663 -0.048333 0.010292 -0.038492 0.010112 0.0084863 -0.03256 0.0088286 -0.0077356 -0.019328 0.0084734 -0.033994 -0.024622 -0.0060321 -0.013803 -0.0033275 0.02314 0.06163 0.014814 -0.10392 -0.015633 -0.078961 0.09236 0.040052 0.041498 -0.028617 -0.00081952 -0.059854 0.0046627 0.049485 0.064497 -0.013111 0.052085 0.030168 0.008287 0.035886 -0.085519 0.10266 -0.032813 -0.00075229 -0.063133 -0.025255 0.087284 -0.012152 -0.038128 0.00065381 -0.017471 -0.040533 0.015438 0.0014131 0.015057 0.020253 0.032815 0.06286 0.048396 0.011336 0.0453 -0.024244 -0.0087056 0.0090541 -0.0057537 0.039635 0.052258 0.075002 -0.014655 0.014668 -0.00045096 -0.0047463 0.049339 -0.02387 -0.0014904 0.011595 0.040675 0.049018 -0.014156 -0.014647 -0.005737 -0.011114 -0.020876 -0.069447 0.060561 0.014395 -0.034815 -0.0024576 0.016026 -0.042331 -0.01415 0.00024793 0.0096632 0.014167 -0.067548 -0.0052035 0.010588 0.034796 0.02878 -0.02008 0.012931 -0.024984 -0.096056 -0.0090909 -0.038803 -0.042347 -0.037448 -0.023318 -0.014284 0.043051 0.0022291 0.02577 0.014402 -0.05451 0.024193 0.015121 -0.024509 -0.028728 0.016011 0.0073737 0.006511 -0.016229 -0.011076 0.07605 0.0015941 -0.03625 0.045488 -0.092432 -0.0028477 0.011522 0.058013 -0.046553 0.0084517 0.0024957 0.055286 -0.013695 -0.0043454 -0.00052255 -0.01659 -0.021005
penatibus 0.0085389 -0.0073334 -0.0059436 0.064227 -0.045148 -0.032348 0.011905 0.0072361 0.031664 -0.029844 0.055676 0.00094369 0.033813 -0.015566 0.037073 -0.042609 0.010453 -0.0056567 -0.0017559 -0.0060923 -0.047545 0.01977 -0.020659 0.054378 0.083278 0.00062075 0.00064492 -0.017509 0.020057 -0.0047479 0.026692 0.00043833 0.072818 0.0004038 -0.023787 -0.00059712 0.044324 0.070553 -0.052922 -0.024069 0.04787 -0.050525 0.0027975 0.044143 -0.051024 0.026381 -0.065406 0.008669 -0.066609 -0.010447 0.034288 -0.00080504 0.0016415 0.014392 0.029086 -0.02574 0.013797 0.0037321 -0.040092 -0.0018072 7.2543e-05 0.011023 0.0549 0.0039425 -0.032559 0.0075687 0.0077013 0.010215 -0.0049951 0.017668 0.0656 -0.0049097 0.012547 -0.051925 -0.0094758 0.0046875 0.013374 0.004087 -0.012409 0.0058045 -0.047429 0.0086651 -0.020683 0.04579 0.02665 0.016986 -0.021693 0.037515 0.037598 0.063116 0.010598 0.018536 -0.0081344 -0.02834 0.045975 0.020994 0.0010333 0.018776 0.0355 0.0076994 0.024674 0.015658 -0.043656 0.015898 -0.046409 -0.016656 -0.010296 0.013559 -0.03451 -0.055831 0.0017553 -0.026576 -0.028889 -0.021255 0.0085285 -0.019156 -0.037551 0.019681 0.026631 -0.002501 -0.037521 -0.0019201 -0.00058008 0.0042486 0.019577 0.040953 0.0053184 -0.014273 0.014476 -0.016082 0.038852 0.042283 -0.011767 0.018016 0.0078439 0.045535 9.7924e-05 -0.0070809 0.025606 0.028308 -0.020009 -0.050678 0.014975 0.016486 -0.054469 1.1949e-05 -0.089521 -0.039102 0.012629 0.0099279 0.034525 0.041266 -0.086091 -0.011559 -0.025123 -0.013445 0.089946 -0.009341 -0.0038691 0.034088 -0.04771 -0.0028248 -0.020122 -0.0090671 -0.0058944 0.053358 -0.0012537 -0.043326 0.012342 -0.051 -0.040061 -0.021543 -0.011843 0.0053183 -0.0086656 -0.051653 0.020701 -0.023223 -0.027575 -0.040003 0.065881 0.033935 0.033631 -0.18512 -0.04067 0.012459 0.029636 0.053044 -0.015634 0.017337 0.013069 0.00045584 -0.048547 0.010378 0.0032964 -0.020542 -0.0096156 0.0056372 0.015333 0.069806 -0.010944 0.032804 0.029183 0.018568 -0.046328 -0.03337 0.02675 0.00059375 -0.019851 0.0022579 -0.029369 -0.0046804 0.032346 0.028272 0.029038 -0.0035468 -0.0052474 0.030852 0.047206 0.081717 -0.02903 -0.04915 0.041364 0.045788 -0.019768 0.053127 0.031776 -0.0023459 0.061033 0.017465 -0.011426 -0.018886 -0.026627 -0.0059094 0.030691 -0.015322 0.025673 0.04054 -0.018567 0.0017828 0.0045066 -0.066242 -0.047419 -0.041523 0.016126 0.042055 -0.025486 0.041361 -0.023609 0.00050128 0.016913 -0.060041 0.019356 0.022141 0.030643 0.036554 0.01349 -0.0067519 0.041578 -0.045853 0.013988 -0.059697 -0.10623 -0.02714 -0.036153 -0.050587 -0.0081291 0.02548 0.011539 0.079267 -0.055748 0.047746 0.011646 -0.0095055 0.03869 0.060751 -0.033538 -0.021018 -0.049929 0.013464 0.00038843 -0.0048639 -0.053765 0.0039922 0.024348 -0.024156 -0.013398 -0.021131 -0.0025701 0.016327 0.051927 0.008416 -0.064711 0.011275 0.047833 -0.0019301 -0.06069 0.028692 0.048239 -0.010182
et 0.18507 -0.77816 -0.30089 0.079125 0.0096374 -0.033782 -0.17077 -0.43841 0.038051 -0.091817 -0.058977 -0.0010069 0.18598 -0.050787 -0.1298 0.75513 0.34729 0.21289 0.19358 0.19014 0.16532 -0.1788 0.32017 0.11406 0.24387 -0.35 0.28917 -0.31956 -0.33688 0.44005 0.17724 0.22484 0.048142 0.3518 -0.020057 -0.45418 0.019058 0.024868 0.15018 0.015066 0.30057 -0.16449 -0.74443 -0.15515 0.2613 0.29061 0.15357 0.36678 -0.42219 0.19599 0.31367 0.18761 0.14897 0.34763 0.11973 -0.27318 -0.16038 0.17961 1.6899 0.034028 -0.35578 -0.15421 0.17564 0.57781 0.092226 0.34059 -0.16481 0.17553 -0.63227 0.069212 1.3664 -0.02558 0.047419 -0.13685 0.40136 0.083118 -0.19899 0.11329 0.01645 0.68641 -0.33402 0.18539 0.12177 -0.20697 -0.47108 -0.061689 -0.028024 0.21505 -0.14846 -0.90519 0.56936 0.22903 0.027877 0.10366 -0.15999 -0.14587 0.21737 -0.39003 0.04616 -0.080864 -0.12583 -0.17599 -0.59756 0.67535 0.12542 0.38463 -0.19489 0.13463 -0.025646 -0.14658 -0.20595 -0.3871 0.032042 -0.49485 0.22487 -0.058726 0.082402 -0.29018 -0.4141 0.2748 -0.03823 0.024729 -0.3215 -0.1301 0.10054 -0.40805 -0.20613 -0.55547 -0.50632 -0.37832 0.072358 0.32038 -0.26841 -0.67217 0.020195 0.20094 -0.24275 0.19597 0.07397 -0.173 0.34779 0.31522 0.14807 0.0083868 0.28766 0.24987 -0.96495 -0.029747 0.16797 0.28684 -0.60655 0.13806 -0.57937 0.074914 0.26457 -0.25108 0.14632 0.25817 -0.25802 -0.36567 -0.028787 -0.17906 -0.20478 -0.067679 -0.2243 0.11347 0.19442 -0.32191 -0.21596 -0.336 -0.18563 -0.036638 0.46183 -0.18829 0.092629 0.07265 -0.23821 0.10378 -0.057827 0.12225 -0.10712 0.53088 -0.32117 -0.51878 0.46486 0.09332 0.0092631 -0.11239 -0.15101 -0.17979 0.055442 0.32482 -0.46465 -0.057693 0.21007 0.0041133 0.17873 0.0038049 0.33027 0.51182 -0.11322 0.06591 -0.28218 0.18981 -0.16747 -0.13727 0.080365 -0.12316 0.71438 -0.45137 -0.9082 0.039922 0.35907 0.09684 -0.21669 -0.109 0.21367 -0.11591 -0.10409 -0.10632 -0.27432 -0.38372 0.29541 -0.81179 -0.58493 0.45246 0.21427 0.12375 -0.24992 -0.014014 0.44115 -0.063136 -0.05039 0.005127 0.010051 0.24445 -0.12134 0.63814 -0.30284 0.0066117 -0.096115 -0.43148 0.60477 0.0096562 2.0824 0.2974 -0.1985 0.2709 0.16 -0.0054745 -0.61563 -0.029631 -0.2466 -0.14312 -0.10608 0.098097 0.28393 -0.12122 0.54391 -0.18097 0.2223 1.1503 -0.52603 0.066135 -0.020962 -0.19765 -0.21547 0.5769 -0.64542 0.26566 0.17162 0.01331 -0.02492 0.26826 -0.32749 0.88965 -0.1308 -0.12949 0.21987 -0.029646 0.15564 -0.016858 0.081027 -0.13549 0.095803 -0.27408 -0.11843 0.48024 0.15419 -0.39077 -0.19261 0.052631 -0.51444 -0.58506 0.21215 0.1631 0.24477 0.85375 0.0029782 -0.012317
magnis 0.043534 -0.10258 -0.10991 -0.01531 -0.0070414 -0.029713 0.0072382 -0.04243 -0.10387 -0.082535 -0.014472 0.038238 -0.0044287 0.017356 -0.049499 -0.078812 -0.0069426 -0.016182 0.0081299 0.028763 -0.030116 0.012829 0.058816 -0.025906 0.00076101 0.034824 0.0085167 -0.0039246 -0.13444 0.2787 0.00084473 -0.045479 0.0038834 0.03026 0.02173 -0.055019 -0.012182 0.096813 -0.12139 -0.066503 0.1691 -0.047788 -0.023432 0.024176 0.07652 0.029033 -0.019101 -0.0068304 -0.031502 -0.0096019 0.074781 0.025665 0.037143 0.011716 -0.097628 -0.043333 -0.025456 -0.043004 0.012483 -0.030348 0.10839 0.011784 0.16985 0.073228 -0.035598 0.053363 -0.035503 -0.0011122 -0.012739 -0.021142 0.10418 0.017162 0.0091992 -0.081713 -0.083926 -0.023272 -0.051865 0.022258 -0.065509 0.028887 -0.09629 0.022534 0.063279 0.013973 0.08888 -0.015797 0.012611 0.039242 0.006473 -0.010261 -0.0063464 -0.078706 -0.10078 0.041219 0.0333 -0.071066 0.0019928 0.048819 -0.015971 -0.01728 0.012919 -0.012235 -0.0066634 0.037347 0.018074 0.099148 -0.011831 -0.024392 0.04219 -0.11151 0.016072 -0.0043001 0.05036 0.038819 0.071813 0.011563 0.067663 -0.097528 -0.021359 -0.032361 0.041742 0.007981 0.07237 -0.074628 0.044344 -0.034042 -0.063479 0.058017 -0.033561 -0.026756 0.10964 -0.0030134 0.00017526 0.010985 -0.032571 -0.01616 -0.04171 0.015752 -0.020849 0.04837 0.047022 -0.05217 -0.067932 -0.048402 -0.10521 0.035013 -0.11611 -0.091738 0.027941 0.0013576 0.071826 -0.008742 0.012166 0.0027466 -0.070573 -0.047505 0.038763 -0.026688 0.0025062 -0.01571 0.023905 0.010524 0.058938 -0.069814 -0.036163 -0.045842 0.086113 -0.052289 -0.014304 -0.067344 -0.091132 0.049742 -0.050813 0.026838 -0.055682 -0.063312 0.022885 -0.028856 -0.077557 -0.091692 0.019463 0.0092714 0.0010103 -0.15059 0.018462 0.0089973 0.11047 0.043928 -0.010053 -0.02996 0.073295 -0.01973 -0.037216 0.088008 -0.081783 -0.027443 -0.018708 0.054198 0.093297 0.012748 -0.011692 0.088323 -0.008336 0.018285 -0.011979 0.008801 0.028314 -0.05112 0.08793 -0.074093 -0.022181 0.02843 0.0098874 0.035268 0.012213 -0.08603 0.056019 0.055674 -0.025208 -0.011226 -0.0014184 0.0093729 0.046295 0.062476 -0.13214 0.040588 0.083871 0.14712 -0.07014 0.031357 0.05263 0.053136 0.0043511 -0.055536 0.038703 0.085601 -0.026569 0.081232 -0.14262 -0.021507 0.00049796 -0.055269 -0.03979 -0.045338 0.17381 0.054748 -0.10684 0.074583 0.025324 0.011527 -0.23822 0.009559 -0.033427 0.054858 0.032555 0.016411 0.057568 0.011338 0.043567 -0.008946 0.073571 -0.0094919 0.0016302 -0.044627 -0.0047784 -0.031261 -0.0070736 0.0078624 -0.11771 0.095653 -0.07827 -0.013847 -0.01498 0.0079208 0.052679 0.044197 0.042665 0.0077017 -0.045502 0.0018305 0.072465 0.034544 -0.045086 0.0212 -0.0098054 0.08847 -0.019856 0.071351 0.019242 -0.022086 0.10888 -0.054783 -0.0044433 -0.092448 0.032802 0.058807 -0.016887 0.051758 -0.029376 -0.049319
dis 0.056886 -0.094352 -0.21051 0.36348 -0.12827 -0.070414 -0.20438 0.078883 -0.13772 -0.071743 0.070763 0.10729 0.019083 0.063792 0.059197 -0.0057065 0.081109 0.19486 -0.0030074 -0.098152 0.098257 -0.028226 0.1366 0.059949 -0.0076685 -0.20296 -0.09077 0.053931 -0.12823 0.236 -0.081488 0.12178 -0.016887 -0.051272 -0.019168 0.11902 0.08716 0.03983 -0.14287 -0.030865 0.11208 -0.17356 -0.13507 -0.11653 -0.11059 0.19059 -0.10815 0.20337 -0.07119 -0.058166 0.11689 -0.12675 0.04314 -0.046838 0.0041373 0.20285 0.087361 -0.065075 -0.14187 0.1414 0.37314 0.037946 -0.067188 -0.012907 0.27308 -0.075327 0.019675 -0.047773 0.1076 0.059986 0.018743 -0.057208 -0.023923 -0.050172 -0.043345 0.012004 0.0037471 -0.064975 0.053536 0.028435 -0.012664 0.14781 0.19323 -0.0082447 0.062402 -0.071978 -0.0062481 0.04351 -0.045808 0.11488 0.02767 0.02684 0.28467 0.075392 0.026472 0.089264 -0.083143 0.0032176 -0.12787 0.022512 -0.12347 0.14038 -0.071509 0.031438 0.058602 0.014373 -0.10239 -0.052725 -0.16552 -0.0034273 0.20139 0.081168 -0.11972 -0.02662 0.019433 0.13483 -0.11409 -0.14627 0.05862 -0.023593 0.30107 0.095745 0.11277 0.030717 0.091406 -0.028176 -0.078762 -0.026658 -0.084152 0.12486 -0.070795 0.12966 -0.23321 -0.024278 -0.10114 0.072934 0.10369 -0.023404 -0.15946 -0.08347 -0.12276 0.014387 -0.015517 -0.059592 -0.083586 0.0092846 -0.34966 0.093002 0.098316 -0.039723 0.048098 -0.028127 -0.018719 0.020784 -0.008079 -0.11783 0.0605 -0.2224 0.15025 -0.22297 0.19773 0.25259 0.061789 -0.23612 -0.0097631 0.0067574 0.14494 0.0651 -0.15875 0.17426 -0.12951 -0.054485 -0.15156 0.087007 0.19009 -0.086944 -0.072852 0.13 0.095203 0.029183 -0.17576 0.029541 -0.046232 -0.074809 0.13076 0.098741 0.061478 0.10748 0.097216 -0.008716 -0.17989 0.058352 -0.12442 0.02544 0.034702 -0.16051 -0.2386 0.026164 0.17469 0.12315 -0.11776 0.092982 0.036956 0.12056 -0.061434 0.16303 0.003449 0.096525 -0.14049 -0.046649 0.025414 0.0019313 -0.012822 -0.1232 0.053374 -0.12456 0.003564 0.041728 0.18463 0.019314 0.018963 -0.05818 -0.067711 0.035703 -0.15724 -0.013662 -0.27299 0.16967 0.060926 -0.040848 -0.072734 0.15099 0.1438 -0.10004 0.42953 -0.22558 0.20639 0.10768 -0.0010885 -0.24945 0.029639 -0.052936 0.10995 -0.14695 0.28951 0.085416 -0.059788 0.11688 0.054829 0.048412 -0.25291 0.035486 -0.01257 0.36842 -0.08817 0.060132 0.16257 0.071399 -0.0017891 -0.014955 -0.06904 -0.01173 0.015664 -0.010147 -0.21266 -0.085983 -0.0061081 0.055613 -0.33887 -0.0096643 0.032575 -0.011913 0.14019 0.11779 -0.15347 0.012175 -0.022176 0.08398 0.19957 0.010681 0.0063898 -0.03953 -0.091835 -0.20881 -0.37608 0.11101 -0.031317 -0.049342 0.038843 -0.24084 0.079842 -0.12992 -0.33682 -0.053302 -0.051091 0.20932 -0.084651 0.25704 0.016225 -0.12251
parturient 0.016584 -0.04881 -0.00040698 -0.009377 0.099602 -0.042252 0.0091306 -0.019477 0.037714 0.034438 -0.098349 -0.04023 -0.0042097 -0.027642 0.036124 0.02852 -0.019222 -0.0092928 -0.021817 -0.03575 0.067622 -0.031689 -0.0023466 0.015755 0.022455 0.010302 0.010782 0.0085284 0.0038079 0.13246 -0.038856 -0.0036542 0.10866 -0.0082101 0.026811 0.031824 -0.031542 -0.011813 -0.0071915 -0.078555 0.063728 -0.13372 0.0056492 0.013096 -0.0079088 -0.044582 0.011877 -0.027889 0.02889 -0.024108 0.013448 0.033221 -0.043393 -0.047925 0.003928 0.012063 0.09535 -0.055905 0.013465 0.023063 0.020878 -0.019518 0.11962 -0.042813 0.0082091 0.077458 0.0046214 -0.044531 -0.038419 -0.038573 -0.01426 -0.019151 0.063371 -0.010431 0.030874 -0.046865 0.046387 -0.054377 0.016789 0.0033892 0.012883 0.015645 0.063308 -0.0081876 -0.018014 -0.033039 0.010805 0.01608 -0.010784 0.040296 -0.045036 -0.071317 -0.015735 -0.041091 -0.041525 -0.03891 0.020668 -0.07321 -0.050112 -0.00091316 0.060423 -0.028753 -0.069689 -0.0054994 0.062002 -0.015925 -0.037417 0.010546 -0.027775 -0.026306 -0.00014846 -0.014964 -0.11104 -0.0033007 0.029054 0.0067924 -0.0085166 0.016009 -0.022003 -0.012567 0.028851 -0.035007 0.035972 -0.08711 -0.017878 -0.08609 -0.054677 0.015621 0.020714 0.020618 0.046886 0.078565 0.019963 -0.018412 0.056753 -0.013293 0.035167 -0.040577 0.053449 0.046607 -0.014354 -0.00083093 0.019717 0.0035918 -0.017303 0.0019576 -0.058602 -0.029729 -0.0044953 -0.0072879 0.045444 -0.0066042 0.0055933 -0.048448 -0.053125 -0.049922 0.045132 -0.075071 0.0049457 -0.068885 0.03941 0.015454 0.026456 -0.10908 -0.085413 -0.0055493 -0.056279 -0.025487 0.036134 -0.001836 -0.030055 0.046692 0.052814 0.024039 -0.028903 0.058908 -0.020226 0.034735 -0.02227 0.076679 0.018274 0.0092743 -0.001199 -0.038015 0.072191 0.01683 0.049599 0.013491 0.013798 0.023077 -0.012911 0.037986 -0.036137 -0.016399 0.040797 0.017277 0.062431 0.020866 0.033092 0.036847 0.058781 0.04107 -0.043284 0.0075318 -0.025394 0.070746 -0.011542 0.098347 0.0030299 0.013931 0.026273 -0.0068653 0.0041806 -0.037669 0.024089 -0.066966 -0.019553 -0.016109 0.011435 0.004612 -0.028679 0.015014 0.038594 0.087731 -0.014056 0.010732 0.05559 -0.015971 0.029935 -0.0087637 0.075365 0.012768 0.020726 -0.0084861 0.036035 -0.030583 0.018899 0.083167 -0.043248 -0.055103 0.070552 -0.090735 -0.006583 -0.017232 0.080651 0.058597 -0.028328 -0.049302 0.0165 0.027478 -0.086338 0.0029345 0.047708 0.040222 0.0011572 0.073536 0.027002 0.11354 -0.035427 -0.0036735 0.078765 -0.039556 0.062073 0.019726 0.011188 0.019472 0.0068393 0.098955 0.0079325 -0.033303 -0.034916 -0.027912 -0.020143 -0.068321 -0.08479 -0.054454 -0.046257 -0.028482 -0.016754 -0.0044315 0.042596 0.047308 -0.049625 0.022827 -0.012453 0.074071 -0.019595 0.077039 0.058704 -0.049707 -0.068923 0.038731 0.013313 -0.0061091 -0.01626 -0.047584 0.0026234 0.046674 0.0092305 -0.045593
montes 0.12361 -0.060077 -0.0024539 0.009093 0.14133 -0.028908 0.0026481 -0.14606 0.068643 -0.033684 -0.14747 0.017957 0.026186 -0.0086781 0.040658 -0.061646 -0.064053 0.041417 0.10725 0.006331 -0.063365 0.0022476 0.093306 -0.073832 0.040304 -0.020765 0.027854 0.063915 -0.056863 0.17981 0.013829 0.020031 -0.020222 -0.0012711 -0.082937 0.0033556 0.0301 -0.0038252 0.015555 -0.0082987 0.10607 -0.13056 -0.047434 -0.11666 0.0077852 -0.0013458 -0.049898 -0.067918 -0.096753 -0.060471 0.0098487 0.021229 0.11547 -0.13016 0.0016564 -0.042336 -0.023676 0.01496 0.14889 0.022205 0.11365 -0.030766 0.043818 0.026172 -0.0015639 0.0030271 0.014148 0.12752 -0.062274 -0.033344 0.060409 -0.071634 -0.057911 0.089774 -0.028793 -0.012608 0.092327 -0.077683 0.025434 -0.028777 -0.087671 -0.034943 -0.049425 -0.10528 0.042003 0.026856 -0.010358 -0.054415 -0.046806 -0.01252 -0.027185 -0.083437 -0.02669 -0.010448 0.0089735 -0.0051998 -0.089186 0.041544 -0.11307 -0.025094 0.043845 -0.028298 -0.073608 0.066494 0.014323 0.096375 -0.0079644 -0.00081128 0.10962 0.10561 -0.021278 -0.059845 0.090948 0.055473 -0.037586 -0.11446 0.027985 -0.0002258 0.1141 0.0096984 0.050682 -0.03838 0.09488 -0.15554 0.1335 0.015234 -0.086015 -0.055881 -0.0055183 -0.035163 0.078762 -0.027736 0.0077441 -0.057232 -0.0024903 0.03321 -0.013931 0.092878 -0.013246 0.056421 0.05176 -0.040418 0.054598 -0.15142 -0.077218 -0.043955 -0.13653 -0.12676 -0.048422 0.043851 -0.0066513 -0.014659 -0.065683 -0.039461 0.046803 -0.013833 -0.04406 -0.18283 -0.017043 -0.0006177 0.0008587 0.073042 -0.015469 -0.1183 0.051159 0.047124 0.076815 -0.065822 -0.010187 -0.0065714 -0.11029 0.049488 -0.054998 -0.053143 0.0075648 -0.019639 -0.13882 0.007136 -0.069253 0.014886 -0.086755 0.0084756 0.027452 -0.053471 0.0027372 0.027243 0.099304 0.018714 -0.13455 0.053884 0.076773 -0.11031 0.058772 -0.1239 -0.0053936 0.0063186 -0.064727 0.07067 0.15755 -0.039319 -0.088032 0.026092 -0.02925 0.040941 -0.030997 0.079772 0.029496 -0.043911 0.0074305 -0.063366 -0.072778 0.07641 0.023235 0.058803 -0.060934 -0.023761 0.015 0.1087 -0.081627 0.016272 -0.03317 0.0015817 -0.10651 0.061992 -0.22105 0.13572 0.018217 0.04347 -0.01466 0.19219 0.016864 0.061163 0.053356 0.046986 0.11861 0.021126 0.085179 0.12387 -0.051316 -0.11499 0.040849 -0.0076234 0.014155 -0.003469 0.14343 0.12647 -0.057192 -0.053323 0.010599 0.10248 -0.14764 0.022852 -0.070911 0.10673 0.073081 -0.016681 0.00082221 -0.15109 0.029543 -0.058084 0.13152 -0.039956 0.053275 0.024211 -0.036033 0.081471 -0.048296 0.032265 0.053912 0.15183 0.0095823 -0.080182 0.0045097 -0.027399 0.011401 0.0063059 -0.007503 0.018405 0.0064966 -0.017604 0.13482 -0.070099 -0.0027142 0.091297 -0.0098087 0.097818 -0.074388 0.0014544 0.050624 -0.15447 -0.090293 -0.018947 -0.13113 -0.065685 0.15282 0.056679 -0.022313 0.05687 0.036025 0.016151
